<?xml version="1.0"?>
<opencv_storage>
<stage10>
  <maxWeakCount>14</maxWeakCount>
  <stageThreshold>-1.2775059938430786e+00</stageThreshold>
  <weakClassifiers>
    <_>
      <internalNodes>
        0 -1 37456 1.7073502531275153e-03</internalNodes>
      <leafValues>
        -2.4455507099628448e-01 1.</leafValues></_>
    <_>
      <internalNodes>
        0 -1 26281 7.9697892069816589e-03</internalNodes>
      <leafValues>
        -1.7027598619461060e-01 8.3490228652954102e-01</leafValues></_>
    <_>
      <internalNodes>
        0 -1 74126 -8.8577339192852378e-04</internalNodes>
      <leafValues>
        6.8335437774658203e-01 -1.7387236654758453e-01</leafValues></_>
    <_>
      <internalNodes>
        0 -1 73198 -1.8262319266796112e-02</internalNodes>
      <leafValues>
        -4.3216070532798767e-01 3.4735217690467834e-01</leafValues></_>
    <_>
      <internalNodes>
        0 -1 68542 -4.4029401615262032e-03</internalNodes>
      <leafValues>
        8.2221299409866333e-01 -1.7074993252754211e-01</leafValues></_>
    <_>
      <internalNodes>
        0 -1 34150 1.7684033140540123e-02</internalNodes>
      <leafValues>
        2.9319947957992554e-01 -4.7437208890914917e-01</leafValues></_>
    <_>
      <internalNodes>
        0 -1 65832 -2.1517772227525711e-02</internalNodes>
      <leafValues>
        8.7861514091491699e-01 -1.6628029942512512e-01</leafValues></_>
    <_>
      <internalNodes>
        0 -1 73909 3.1117651611566544e-02</internalNodes>
      <leafValues>
        -2.3818819224834442e-01 7.5912606716156006e-01</leafValues></_>
    <_>
      <internalNodes>
        0 -1 11338 -7.2802491486072540e-03</internalNodes>
      <leafValues>
        -4.4988608360290527e-01 3.6442449688911438e-01</leafValues></_>
    <_>
      <internalNodes>
        0 -1 2783 -7.7296094968914986e-04</internalNodes>
      <leafValues>
        -3.0421549081802368e-01 5.5819594860076904e-01</leafValues></_>
    <_>
      <internalNodes>
        0 -1 67956 -1.6377720749005675e-03</internalNodes>
      <leafValues>
        -4.0983918309211731e-01 4.6242004632949829e-01</leafValues></_>
    <_>
      <internalNodes>
        0 -1 54043 -1.0194110218435526e-03</internalNodes>
      <leafValues>
        7.3140180110931396e-01 -2.6640897989273071e-01</leafValues></_>
    <_>
      <internalNodes>
        0 -1 33441 -1.0234714718535542e-03</internalNodes>
      <leafValues>
        8.0410975217819214e-01 -2.0591279864311218e-01</leafValues></_>
    <_>
      <internalNodes>
        0 -1 69979 1.9014207646250725e-03</internalNodes>
      <leafValues>
        -1.1568400263786316e-01 1.</leafValues></_></weakClassifiers></stage10>
</opencv_storage>
