<?xml version="1.0"?>
<opencv_storage>
<stage6>
  <maxWeakCount>48</maxWeakCount>
  <stageThreshold>-9.7623747587203979e-01</stageThreshold>
  <weakClassifiers>
    <_>
      <internalNodes>
        0 -1 67307 1.9173350185155869e-02</internalNodes>
      <leafValues>
        -3.2819384336471558e-01 1.0986547172069550e-01</leafValues></_>
    <_>
      <internalNodes>
        0 -1 28360 9.7402349114418030e-02</internalNodes>
      <leafValues>
        -2.1952575445175171e-01 1.4524570107460022e-01</leafValues></_>
    <_>
      <internalNodes>
        0 -1 72433 2.9717093333601952e-02</internalNodes>
      <leafValues>
        -5.5202171206474304e-02 5.6891220808029175e-01</leafValues></_>
    <_>
      <internalNodes>
        0 -1 20343 -1.0962883010506630e-02</internalNodes>
      <leafValues>
        -8.0344253778457642e-01 2.1125230938196182e-02</leafValues></_>
    <_>
      <internalNodes>
        0 -1 31564 1.3093956513330340e-03</internalNodes>
      <leafValues>
        2.6071774959564209e-01 -1.0134869813919067e-01</leafValues></_>
    <_>
      <internalNodes>
        0 -1 52094 -2.8935965150594711e-02</internalNodes>
      <leafValues>
        8.1133908033370972e-01 -3.1983658671379089e-02</leafValues></_>
    <_>
      <internalNodes>
        0 -1 23247 -6.2006179243326187e-02</internalNodes>
      <leafValues>
        3.5868459939956665e-01 -6.8434916436672211e-02</leafValues></_>
    <_>
      <internalNodes>
        0 -1 663 5.5752724409103394e-02</internalNodes>
      <leafValues>
        2.0796790719032288e-02 -6.6987973451614380e-01</leafValues></_>
    <_>
      <internalNodes>
        0 -1 787 -6.2859654426574707e-03</internalNodes>
      <leafValues>
        -3.1865951418876648e-01 8.8266305625438690e-02</leafValues></_>
    <_>
      <internalNodes>
        0 -1 42364 -3.5805709660053253e-02</internalNodes>
      <leafValues>
        4.0340116620063782e-01 -6.4529873430728912e-02</leafValues></_>
    <_>
      <internalNodes>
        0 -1 62016 -1.1917099356651306e-02</internalNodes>
      <leafValues>
        1.4696305990219116e-01 -2.2265022993087769e-01</leafValues></_>
    <_>
      <internalNodes>
        0 -1 57978 -4.7827512025833130e-03</internalNodes>
      <leafValues>
        3.0229872465133667e-01 -7.2545520961284637e-02</leafValues></_>
    <_>
      <internalNodes>
        0 -1 57935 1.6142495442181826e-03</internalNodes>
      <leafValues>
        5.4679285734891891e-02 -4.1744130849838257e-01</leafValues></_>
    <_>
      <internalNodes>
        0 -1 12340 -1.7129512503743172e-02</internalNodes>
      <leafValues>
        3.4005555510520935e-01 -8.4813483059406281e-02</leafValues></_>
    <_>
      <internalNodes>
        0 -1 73033 1.3725777389481664e-03</internalNodes>
      <leafValues>
        1.4357654750347137e-01 -1.9627264142036438e-01</leafValues></_>
    <_>
      <internalNodes>
        0 -1 4189 5.2050340920686722e-02</internalNodes>
      <leafValues>
        -1.3728898763656616e-01 2.2249750792980194e-01</leafValues></_>
    <_>
      <internalNodes>
        0 -1 73520 1.4470122987404466e-03</internalNodes>
      <leafValues>
        7.3949456214904785e-02 -4.7970297932624817e-01</leafValues></_>
    <_>
      <internalNodes>
        0 -1 26915 1.3243999332189560e-02</internalNodes>
      <leafValues>
        -1.0910978168249130e-01 3.1764221191406250e-01</leafValues></_>
    <_>
      <internalNodes>
        0 -1 15748 3.7768596410751343e-01</internalNodes>
      <leafValues>
        1.0172078758478165e-01 -2.8142771124839783e-01</leafValues></_>
    <_>
      <internalNodes>
        0 -1 1179 -1.3293769955635071e-01</internalNodes>
      <leafValues>
        -5.9109634160995483e-01 4.2513780295848846e-02</leafValues></_>
    <_>
      <internalNodes>
        0 -1 35501 -3.6848593503236771e-02</internalNodes>
      <leafValues>
        5.3937381505966187e-01 -5.2277628332376480e-02</leafValues></_>
    <_>
      <internalNodes>
        0 -1 43500 -1.3776279985904694e-02</internalNodes>
      <leafValues>
        5.4458892345428467e-01 -5.0350874662399292e-02</leafValues></_>
    <_>
      <internalNodes>
        0 -1 2120 6.8451487459242344e-03</internalNodes>
      <leafValues>
        4.4466681778430939e-02 -5.7847523689270020e-01</leafValues></_>
    <_>
      <internalNodes>
        0 -1 3876 9.6223571745213121e-05</internalNodes>
      <leafValues>
        1.6007532179355621e-01 -1.8057866394519806e-01</leafValues></_>
    <_>
      <internalNodes>
        0 -1 44692 -3.1436026096343994e-02</internalNodes>
      <leafValues>
        6.8888485431671143e-01 -3.3702854067087173e-02</leafValues></_>
    <_>
      <internalNodes>
        0 -1 61932 -1.9384864717721939e-03</internalNodes>
      <leafValues>
        -3.0793070793151855e-01 8.8706307113170624e-02</leafValues></_>
    <_>
      <internalNodes>
        0 -1 53950 -4.0601762011647224e-03</internalNodes>
      <leafValues>
        9.5247767865657806e-02 -3.2834330201148987e-01</leafValues></_>
    <_>
      <internalNodes>
        0 -1 5917 6.8952492438256741e-04</internalNodes>
      <leafValues>
        1.4025932550430298e-01 -2.0433686673641205e-01</leafValues></_>
    <_>
      <internalNodes>
        0 -1 24177 -3.6114357411861420e-02</internalNodes>
      <leafValues>
        6.7696130275726318e-01 -4.1403993964195251e-02</leafValues></_>
    <_>
      <internalNodes>
        0 -1 32175 3.4139841794967651e-02</internalNodes>
      <leafValues>
        1.1064855754375458e-01 -2.7073356509208679e-01</leafValues></_>
    <_>
      <internalNodes>
        0 -1 2737 9.2821009457111359e-03</internalNodes>
      <leafValues>
        4.9736220389604568e-02 -4.4563028216362000e-01</leafValues></_>
    <_>
      <internalNodes>
        0 -1 36618 -3.9597776532173157e-01</internalNodes>
      <leafValues>
        -6.7296892404556274e-01 3.6872781813144684e-02</leafValues></_>
    <_>
      <internalNodes>
        0 -1 77766 -2.5184340775012970e-03</internalNodes>
      <leafValues>
        -4.6676793694496155e-01 5.3485631942749023e-02</leafValues></_>
    <_>
      <internalNodes>
        0 -1 73520 -1.2152120471000671e-03</internalNodes>
      <leafValues>
        -3.7905269861221313e-01 7.6085403561592102e-02</leafValues></_>
    <_>
      <internalNodes>
        0 -1 14767 -1.2496360577642918e-03</internalNodes>
      <leafValues>
        -4.9293619394302368e-01 4.9230054020881653e-02</leafValues></_>
    <_>
      <internalNodes>
        0 -1 8387 -4.3617235496640205e-04</internalNodes>
      <leafValues>
        1.6142410039901733e-01 -1.6284580528736115e-01</leafValues></_>
    <_>
      <internalNodes>
        0 -1 2486 2.7614414691925049e-02</internalNodes>
      <leafValues>
        -8.7385021150112152e-02 3.6911794543266296e-01</leafValues></_>
    <_>
      <internalNodes>
        0 -1 2719 -1.1664247512817383e-01</internalNodes>
      <leafValues>
        -7.8090596199035645e-01 4.6887550503015518e-02</leafValues></_>
    <_>
      <internalNodes>
        0 -1 72278 -4.5639924705028534e-02</internalNodes>
      <leafValues>
        5.8996784687042236e-01 -5.5503208190202713e-02</leafValues></_>
    <_>
      <internalNodes>
        0 -1 78168 8.2535506226122379e-04</internalNodes>
      <leafValues>
        8.4352754056453705e-02 -3.4052571654319763e-01</leafValues></_>
    <_>
      <internalNodes>
        0 -1 67087 4.9666925333440304e-03</internalNodes>
      <leafValues>
        -4.5209974050521851e-02 7.6137661933898926e-01</leafValues></_>
    <_>
      <internalNodes>
        0 -1 30504 1.2767700850963593e-01</internalNodes>
      <leafValues>
        -2.8873464465141296e-01 1.0444414615631104e-01</leafValues></_>
    <_>
      <internalNodes>
        0 -1 10622 4.7514356672763824e-02</internalNodes>
      <leafValues>
        -1.7487356066703796e-01 1.5277323126792908e-01</leafValues></_>
    <_>
      <internalNodes>
        0 -1 56369 -9.8108975216746330e-03</internalNodes>
      <leafValues>
        6.8730449676513672e-01 -4.6084485948085785e-02</leafValues></_>
    <_>
      <internalNodes>
        0 -1 25216 -5.4107019677758217e-03</internalNodes>
      <leafValues>
        2.5902840495109558e-01 -9.6332386136054993e-02</leafValues></_>
    <_>
      <internalNodes>
        0 -1 37541 -1.4080876484513283e-02</internalNodes>
      <leafValues>
        3.7738254666328430e-01 -7.5136609375476837e-02</leafValues></_>
    <_>
      <internalNodes>
        0 -1 15929 2.3224020004272461e-01</internalNodes>
      <leafValues>
        3.8722563534975052e-02 -6.9747740030288696e-01</leafValues></_>
    <_>
      <internalNodes>
        0 -1 72838 -5.1424428820610046e-03</internalNodes>
      <leafValues>
        -3.5872289538383484e-01 6.4538978040218353e-02</leafValues></_></weakClassifiers></stage6>
</opencv_storage>
