<?xml version="1.0"?>
<opencv_storage>
<stage11>
  <maxWeakCount>7</maxWeakCount>
  <stageThreshold>-9.6633052825927734e-01</stageThreshold>
  <weakClassifiers>
    <_>
      <internalNodes>
        0 -1 67342 -1.4040209352970123e-03</internalNodes>
      <leafValues>
        1. -4.0056023001670837e-01</leafValues></_>
    <_>
      <internalNodes>
        0 -1 6155 -3.8082180253695697e-05</internalNodes>
      <leafValues>
        8.1736570596694946e-01 -3.1024131178855896e-01</leafValues></_>
    <_>
      <internalNodes>
        0 -1 3416 3.0639572069048882e-03</internalNodes>
      <leafValues>
        -3.2685366272926331e-01 8.2512074708938599e-01</leafValues></_>
    <_>
      <internalNodes>
        0 -1 64903 -8.6197685450315475e-03</internalNodes>
      <leafValues>
        -5.7094967365264893e-01 5.5462634563446045e-01</leafValues></_>
    <_>
      <internalNodes>
        0 -1 71762 4.9181631766259670e-04</internalNodes>
      <leafValues>
        8.1594908237457275e-01 -4.0761047601699829e-01</leafValues></_>
    <_>
      <internalNodes>
        0 -1 71146 2.1881954744458199e-03</internalNodes>
      <leafValues>
        5.2161365747451782e-01 -6.8540984392166138e-01</leafValues></_>
    <_>
      <internalNodes>
        0 -1 51676 7.9166078940033913e-03</internalNodes>
      <leafValues>
        7.2814357280731201e-01 -5.4225575923919678e-01</leafValues></_></weakClassifiers></stage11>
</opencv_storage>
