<?xml version="1.0"?>
<opencv_storage>
<stage9>
  <maxWeakCount>22</maxWeakCount>
  <stageThreshold>-1.0249923467636108e+00</stageThreshold>
  <weakClassifiers>
    <_>
      <internalNodes>
        0 -1 25324 9.9247708916664124e-02</internalNodes>
      <leafValues>
        -1.9444444775581360e-01 8.4722220897674561e-01</leafValues></_>
    <_>
      <internalNodes>
        0 -1 11488 -3.1621858477592468e-02</internalNodes>
      <leafValues>
        7.7448230981826782e-01 -1.1218418180942535e-01</leafValues></_>
    <_>
      <internalNodes>
        0 -1 73896 -1.1260141618549824e-03</internalNodes>
      <leafValues>
        4.8202112317085266e-01 -1.2244388461112976e-01</leafValues></_>
    <_>
      <internalNodes>
        0 -1 30326 2.7042932808399200e-02</internalNodes>
      <leafValues>
        -9.2093795537948608e-02 8.0559092760086060e-01</leafValues></_>
    <_>
      <internalNodes>
        0 -1 73790 -4.9733216874301434e-03</internalNodes>
      <leafValues>
        -7.1272480487823486e-01 1.3847646117210388e-01</leafValues></_>
    <_>
      <internalNodes>
        0 -1 74708 -4.1011469438672066e-03</internalNodes>
      <leafValues>
        1. -7.2234548628330231e-02</leafValues></_>
    <_>
      <internalNodes>
        0 -1 66805 1.7958449898287654e-03</internalNodes>
      <leafValues>
        -7.3028467595577240e-02 8.7097561359405518e-01</leafValues></_>
    <_>
      <internalNodes>
        0 -1 44836 -1.4491893351078033e-02</internalNodes>
      <leafValues>
        1. -6.4394898712635040e-02</leafValues></_>
    <_>
      <internalNodes>
        0 -1 76424 1.9148443825542927e-03</internalNodes>
      <leafValues>
        -1.0429283231496811e-01 5.5438417196273804e-01</leafValues></_>
    <_>
      <internalNodes>
        0 -1 1692 2.9795007780194283e-02</internalNodes>
      <leafValues>
        -1.4328294992446899e-01 4.6276018023490906e-01</leafValues></_>
    <_>
      <internalNodes>
        0 -1 78407 4.2864801362156868e-03</internalNodes>
      <leafValues>
        2.2950987517833710e-01 -3.3357223868370056e-01</leafValues></_>
    <_>
      <internalNodes>
        0 -1 74709 3.4576677717268467e-03</internalNodes>
      <leafValues>
        -1.2357045710086823e-01 6.9027912616729736e-01</leafValues></_>
    <_>
      <internalNodes>
        0 -1 53455 9.5168463885784149e-03</internalNodes>
      <leafValues>
        -6.7565470933914185e-02 8.5198259353637695e-01</leafValues></_>
    <_>
      <internalNodes>
        0 -1 33587 1.7507509328424931e-03</internalNodes>
      <leafValues>
        2.3897743225097656e-01 -3.2556241750717163e-01</leafValues></_>
    <_>
      <internalNodes>
        0 -1 70140 6.3921569380909204e-04</internalNodes>
      <leafValues>
        -1.1994627118110657e-01 7.3449480533599854e-01</leafValues></_>
    <_>
      <internalNodes>
        0 -1 76338 2.5487944483757019e-02</internalNodes>
      <leafValues>
        -1.1242391169071198e-01 8.1402927637100220e-01</leafValues></_>
    <_>
      <internalNodes>
        0 -1 75245 -9.9963205866515636e-04</internalNodes>
      <leafValues>
        3.5671743750572205e-01 -2.1241956949234009e-01</leafValues></_>
    <_>
      <internalNodes>
        0 -1 67768 -9.0872952714562416e-03</internalNodes>
      <leafValues>
        4.4296166300773621e-01 -1.7273929715156555e-01</leafValues></_>
    <_>
      <internalNodes>
        0 -1 541 -1.3576491735875607e-02</internalNodes>
      <leafValues>
        -3.8265633583068848e-01 2.7241778373718262e-01</leafValues></_>
    <_>
      <internalNodes>
        0 -1 199 -8.6817564442753792e-04</internalNodes>
      <leafValues>
        -3.8032895326614380e-01 2.8419336676597595e-01</leafValues></_>
    <_>
      <internalNodes>
        0 -1 25230 1.0237711668014526e-01</internalNodes>
      <leafValues>
        -1.0211943835020065e-01 8.2558232545852661e-01</leafValues></_>
    <_>
      <internalNodes>
        0 -1 3538 8.0764934420585632e-02</internalNodes>
      <leafValues>
        -2.3932552337646484e-01 4.3770548701286316e-01</leafValues></_></weakClassifiers></stage9>
</opencv_storage>
