<?xml version="1.0"?>
<opencv_storage>
<cascade>
  <stageType>BOOST</stageType>
  <featureType>HAAR</featureType>
  <height>20</height>
  <width>20</width>
  <stageParams>
    <boostType>GAB</boostType>
    <minHitRate>9.9500000476837158e-01</minHitRate>
    <maxFalseAlarm>5.0000000000000000e-01</maxFalseAlarm>
    <weightTrimRate>9.4999999999999996e-01</weightTrimRate>
    <maxDepth>1</maxDepth>
    <maxWeakCount>100</maxWeakCount></stageParams>
  <featureParams>
    <maxCatCount>0</maxCatCount>
    <featSize>1</featSize>
    <mode>BASIC</mode></featureParams>
  <stageNum>12</stageNum>
  <stages>
    <!-- stage 0 -->
    <_>
      <maxWeakCount>18</maxWeakCount>
      <stageThreshold>-2.0276181697845459e+00</stageThreshold>
      <weakClassifiers>
        <_>
          <internalNodes>
            0 -1 466 1.2975613772869110e-01</internalNodes>
          <leafValues>
            -8.6867117881774902e-01 4.7862261533737183e-02</leafValues></_>
        <_>
          <internalNodes>
            0 -1 239 1.3136339187622070e-01</internalNodes>
          <leafValues>
            -7.6486623287200928e-01 2.0658995211124420e-01</leafValues></_>
        <_>
          <internalNodes>
            0 -1 540 -1.5141922980546951e-02</internalNodes>
          <leafValues>
            6.1486888676881790e-02 -6.4954918622970581e-01</leafValues></_>
        <_>
          <internalNodes>
            0 -1 723 4.2002309113740921e-02</internalNodes>
          <leafValues>
            -8.4127195179462433e-02 5.8054417371749878e-01</leafValues></_>
        <_>
          <internalNodes>
            0 -1 400 1.0934251360595226e-02</internalNodes>
          <leafValues>
            -1.3548648357391357e-01 4.2097532749176025e-01</leafValues></_>
        <_>
          <internalNodes>
            0 -1 361 9.3767400830984116e-03</internalNodes>
          <leafValues>
            -9.4650842249393463e-02 5.7334733009338379e-01</leafValues></_>
        <_>
          <internalNodes>
            0 -1 673 -2.4511875584721565e-02</internalNodes>
          <leafValues>
            4.1843920946121216e-01 -1.1283594369888306e-01</leafValues></_>
        <_>
          <internalNodes>
            0 -1 163 2.6396533846855164e-01</internalNodes>
          <leafValues>
            5.8069929480552673e-02 -7.8870183229446411e-01</leafValues></_>
        <_>
          <internalNodes>
            0 -1 590 -9.7078252583742142e-03</internalNodes>
          <leafValues>
            5.4622793197631836e-01 -8.1919111311435699e-02</leafValues></_>
        <_>
          <internalNodes>
            0 -1 613 1.7218481749296188e-02</internalNodes>
          <leafValues>
            1.0789591819047928e-01 -4.1728892922401428e-01</leafValues></_>
        <_>
          <internalNodes>
            0 -1 751 7.4166253209114075e-02</internalNodes>
          <leafValues>
            -5.8466371148824692e-02 5.5148667097091675e-01</leafValues></_>
        <_>
          <internalNodes>
            0 -1 643 -6.7344965646043420e-04</internalNodes>
          <leafValues>
            -3.9085564017295837e-01 9.1099612414836884e-02</leafValues></_>
        <_>
          <internalNodes>
            0 -1 409 3.5528130829334259e-02</internalNodes>
          <leafValues>
            -8.3569295704364777e-02 4.0787073969841003e-01</leafValues></_>
        <_>
          <internalNodes>
            0 -1 707 1.1489798314869404e-02</internalNodes>
          <leafValues>
            -1.1450275778770447e-01 3.0652841925621033e-01</leafValues></_>
        <_>
          <internalNodes>
            0 -1 686 -9.7351685166358948e-02</internalNodes>
          <leafValues>
            -4.2975950241088867e-01 6.4740687608718872e-02</leafValues></_>
        <_>
          <internalNodes>
            0 -1 199 -1.1450115591287613e-02</internalNodes>
          <leafValues>
            2.9513099789619446e-01 -9.5604784786701202e-02</leafValues></_>
        <_>
          <internalNodes>
            0 -1 317 4.7591596841812134e-02</internalNodes>
          <leafValues>
            -5.0987843424081802e-02 5.6679087877273560e-01</leafValues></_>
        <_>
          <internalNodes>
            0 -1 571 5.5376021191477776e-03</internalNodes>
          <leafValues>
            -1.0445269197225571e-01 2.2803422808647156e-01</leafValues></_></weakClassifiers></_>
    <!-- stage 1 -->
    <_>
      <maxWeakCount>59</maxWeakCount>
      <stageThreshold>-2.0085093975067139e+00</stageThreshold>
      <weakClassifiers>
        <_>
          <internalNodes>
            0 -1 467 1.3310109078884125e-01</internalNodes>
          <leafValues>
            -8.3505153656005859e-01 -2.3847648501396179e-01</leafValues></_>
        <_>
          <internalNodes>
            0 -1 118 1.5151199698448181e-01</internalNodes>
          <leafValues>
            -7.2901970148086548e-01 5.6472450494766235e-02</leafValues></_>
        <_>
          <internalNodes>
            0 -1 295 3.5855025053024292e-02</internalNodes>
          <leafValues>
            -9.7881942987442017e-02 5.7564604282379150e-01</leafValues></_>
        <_>
          <internalNodes>
            0 -1 625 -1.9362518563866615e-02</internalNodes>
          <leafValues>
            5.2219420671463013e-01 -1.0992246121168137e-01</leafValues></_>
        <_>
          <internalNodes>
            0 -1 646 -1.0389318922534585e-03</internalNodes>
          <leafValues>
            -5.6425690650939941e-01 7.8809924423694611e-02</leafValues></_>
        <_>
          <internalNodes>
            0 -1 400 1.0933283716440201e-02</internalNodes>
          <leafValues>
            -1.3357295095920563e-01 3.5232540965080261e-01</leafValues></_>
        <_>
          <internalNodes>
            0 -1 745 2.6575449854135513e-02</internalNodes>
          <leafValues>
            -8.6576752364635468e-02 5.2086633443832397e-01</leafValues></_>
        <_>
          <internalNodes>
            0 -1 767 -1.3969779945909977e-02</internalNodes>
          <leafValues>
            5.3372287750244141e-01 -6.7492730915546417e-02</leafValues></_>
        <_>
          <internalNodes>
            0 -1 464 3.8459673523902893e-02</internalNodes>
          <leafValues>
            -8.9003816246986389e-02 4.3147015571594238e-01</leafValues></_>
        <_>
          <internalNodes>
            0 -1 714 -8.5289940237998962e-02</internalNodes>
          <leafValues>
            2.0583869516849518e-01 -2.3411291837692261e-01</leafValues></_>
        <_>
          <internalNodes>
            0 -1 468 -1.5185955911874771e-02</internalNodes>
          <leafValues>
            3.9331939816474915e-01 -7.2423078119754791e-02</leafValues></_>
        <_>
          <internalNodes>
            0 -1 590 -8.2964189350605011e-03</internalNodes>
          <leafValues>
            4.0900582075119019e-01 -8.3399884402751923e-02</leafValues></_>
        <_>
          <internalNodes>
            0 -1 373 -4.8943821340799332e-02</internalNodes>
          <leafValues>
            1.0704156011343002e-01 -3.4568557143211365e-01</leafValues></_>
        <_>
          <internalNodes>
            0 -1 153 3.4268521703779697e-03</internalNodes>
          <leafValues>
            1.0303593426942825e-01 -3.1286215782165527e-01</leafValues></_>
        <_>
          <internalNodes>
            0 -1 186 -4.8854155465960503e-03</internalNodes>
          <leafValues>
            2.3215140402317047e-01 -1.2893924117088318e-01</leafValues></_>
        <_>
          <internalNodes>
            0 -1 550 5.0163146108388901e-02</internalNodes>
          <leafValues>
            -5.4346162825822830e-02 5.3847151994705200e-01</leafValues></_>
        <_>
          <internalNodes>
            0 -1 385 1.5072201378643513e-02</internalNodes>
          <leafValues>
            -8.4534712135791779e-02 4.1864863038063049e-01</leafValues></_>
        <_>
          <internalNodes>
            0 -1 108 -1.8333494663238525e-01</internalNodes>
          <leafValues>
            -4.9243390560150146e-01 4.9237553030252457e-02</leafValues></_>
        <_>
          <internalNodes>
            0 -1 476 3.1016536056995392e-02</internalNodes>
          <leafValues>
            -7.4441224336624146e-02 3.0201283097267151e-01</leafValues></_>
        <_>
          <internalNodes>
            0 -1 59 -6.4513287506997585e-03</internalNodes>
          <leafValues>
            -2.8438088297843933e-01 7.3598153889179230e-02</leafValues></_>
        <_>
          <internalNodes>
            0 -1 426 1.1670035310089588e-02</internalNodes>
          <leafValues>
            -5.3683694452047348e-02 4.1471993923187256e-01</leafValues></_>
        <_>
          <internalNodes>
            0 -1 82 -1.9213882088661194e-01</internalNodes>
          <leafValues>
            6.1554861068725586e-01 -3.3864349126815796e-02</leafValues></_>
        <_>
          <internalNodes>
            0 -1 576 -2.3847622796893120e-03</internalNodes>
          <leafValues>
            1.8759642541408539e-01 -1.1186199635267258e-01</leafValues></_>
        <_>
          <internalNodes>
            0 -1 651 3.3462513238191605e-04</internalNodes>
          <leafValues>
            1.0326042026281357e-01 -2.1479204297065735e-01</leafValues></_>
        <_>
          <internalNodes>
            0 -1 639 -4.7348581254482269e-02</internalNodes>
          <leafValues>
            4.6660250425338745e-01 -4.8879716545343399e-02</leafValues></_>
        <_>
          <internalNodes>
            0 -1 258 2.3910172283649445e-02</internalNodes>
          <leafValues>
            -4.1191257536411285e-02 4.2212349176406860e-01</leafValues></_>
        <_>
          <internalNodes>
            0 -1 501 -7.5453286990523338e-03</internalNodes>
          <leafValues>
            -2.5725141167640686e-01 7.3727846145629883e-02</leafValues></_>
        <_>
          <internalNodes>
            0 -1 76 -5.1913205534219742e-03</internalNodes>
          <leafValues>
            -3.7694901227951050e-01 4.9454040825366974e-02</leafValues></_>
        <_>
          <internalNodes>
            0 -1 721 5.4274503141641617e-02</internalNodes>
          <leafValues>
            -3.7378113716840744e-02 5.7219511270523071e-01</leafValues></_>
        <_>
          <internalNodes>
            0 -1 651 -3.0379975214600563e-04</internalNodes>
          <leafValues>
            -2.2407716512680054e-01 9.6949435770511627e-02</leafValues></_>
        <_>
          <internalNodes>
            0 -1 240 3.2604705542325974e-02</internalNodes>
          <leafValues>
            -8.4181241691112518e-02 2.4954494833946228e-01</leafValues></_>
        <_>
          <internalNodes>
            0 -1 14 6.5278969705104828e-02</internalNodes>
          <leafValues>
            3.2586470246315002e-02 -5.6306874752044678e-01</leafValues></_>
        <_>
          <internalNodes>
            0 -1 3 -1.2074437923729420e-02</internalNodes>
          <leafValues>
            -6.3230168819427490e-01 2.6757530868053436e-02</leafValues></_>
        <_>
          <internalNodes>
            0 -1 324 4.0321412682533264e-01</internalNodes>
          <leafValues>
            3.0896412208676338e-02 -5.4024577140808105e-01</leafValues></_>
        <_>
          <internalNodes>
            0 -1 816 5.6001702323555946e-03</internalNodes>
          <leafValues>
            3.6413196474313736e-02 -4.4044151902198792e-01</leafValues></_>
        <_>
          <internalNodes>
            0 -1 484 -9.0086739510297775e-03</internalNodes>
          <leafValues>
            4.4564214348793030e-01 -4.0590293705463409e-02</leafValues></_>
        <_>
          <internalNodes>
            0 -1 275 2.0069068670272827e-01</internalNodes>
          <leafValues>
            3.2766122370958328e-02 -5.3117722272872925e-01</leafValues></_>
        <_>
          <internalNodes>
            0 -1 451 -3.4596845507621765e-02</internalNodes>
          <leafValues>
            -2.8823366761207581e-01 5.5096317082643509e-02</leafValues></_>
        <_>
          <internalNodes>
            0 -1 334 2.8876937925815582e-02</internalNodes>
          <leafValues>
            -2.9544171690940857e-01 5.9175956994295120e-02</leafValues></_>
        <_>
          <internalNodes>
            0 -1 709 1.3354839757084846e-02</internalNodes>
          <leafValues>
            -5.7256229221820831e-02 3.2931363582611084e-01</leafValues></_>
        <_>
          <internalNodes>
            0 -1 104 -2.0174127072095871e-02</internalNodes>
          <leafValues>
            -5.4406893253326416e-01 3.2620269805192947e-02</leafValues></_>
        <_>
          <internalNodes>
            0 -1 33 4.5663172006607056e-01</internalNodes>
          <leafValues>
            2.4061141535639763e-02 -6.0154634714126587e-01</leafValues></_>
        <_>
          <internalNodes>
            0 -1 202 -2.5769490003585815e-01</internalNodes>
          <leafValues>
            -4.7867122292518616e-01 3.2819561660289764e-02</leafValues></_>
        <_>
          <internalNodes>
            0 -1 89 2.8221316635608673e-02</internalNodes>
          <leafValues>
            4.6772643923759460e-02 -3.3736401796340942e-01</leafValues></_>
        <_>
          <internalNodes>
            0 -1 799 1.3322420418262482e-02</internalNodes>
          <leafValues>
            4.4665042310953140e-02 -3.4837862849235535e-01</leafValues></_>
        <_>
          <internalNodes>
            0 -1 555 3.6887615919113159e-02</internalNodes>
          <leafValues>
            3.6562107503414154e-02 -3.9563083648681641e-01</leafValues></_>
        <_>
          <internalNodes>
            0 -1 642 -4.3443396687507629e-02</internalNodes>
          <leafValues>
            3.4492385387420654e-01 -4.7895353287458420e-02</leafValues></_>
        <_>
          <internalNodes>
            0 -1 281 1.2182891368865967e-01</internalNodes>
          <leafValues>
            -1.9461965560913086e-01 8.6854785680770874e-02</leafValues></_>
        <_>
          <internalNodes>
            0 -1 313 9.8130153492093086e-03</internalNodes>
          <leafValues>
            -5.2717808634042740e-02 2.8686103224754333e-01</leafValues></_>
        <_>
          <internalNodes>
            0 -1 650 3.6237842869013548e-04</internalNodes>
          <leafValues>
            6.1073608696460724e-02 -2.3833382129669189e-01</leafValues></_>
        <_>
          <internalNodes>
            0 -1 572 -3.8868464529514313e-02</internalNodes>
          <leafValues>
            5.4847133159637451e-01 -3.3817753195762634e-02</leafValues></_>
        <_>
          <internalNodes>
            0 -1 688 -6.9441080093383789e-02</internalNodes>
          <leafValues>
            -4.7977903485298157e-01 3.1545486301183701e-02</leafValues></_>
        <_>
          <internalNodes>
            0 -1 151 5.9015639126300812e-03</internalNodes>
          <leafValues>
            3.1887076795101166e-02 -3.8429465889930725e-01</leafValues></_>
        <_>
          <internalNodes>
            0 -1 692 3.3098703715950251e-04</internalNodes>
          <leafValues>
            4.4549021869897842e-02 -3.0393901467323303e-01</leafValues></_>
        <_>
          <internalNodes>
            0 -1 521 1.2586528435349464e-02</internalNodes>
          <leafValues>
            -7.6904103159904480e-02 2.3016558587551117e-01</leafValues></_>
        <_>
          <internalNodes>
            0 -1 12 3.5031475126743317e-02</internalNodes>
          <leafValues>
            4.4843979179859161e-02 -3.3113446831703186e-01</leafValues></_>
        <_>
          <internalNodes>
            0 -1 201 4.9206808209419250e-02</internalNodes>
          <leafValues>
            -3.8646403700113297e-02 3.3532664179801941e-01</leafValues></_>
        <_>
          <internalNodes>
            0 -1 837 -1.2597604654729366e-03</internalNodes>
          <leafValues>
            -2.7053982019424438e-01 4.6249382197856903e-02</leafValues></_>
        <_>
          <internalNodes>
            0 -1 838 -4.9632275477051735e-03</internalNodes>
          <leafValues>
            -1.9730594754219055e-01 6.2590561807155609e-02</leafValues></_></weakClassifiers></_>
    <!-- stage 2 -->
    <_>
      <maxWeakCount>99</maxWeakCount>
      <stageThreshold>-1.9480112791061401e+00</stageThreshold>
      <weakClassifiers>
        <_>
          <internalNodes>
            0 -1 246 1.0694845020771027e-01</internalNodes>
          <leafValues>
            -5.6988495588302612e-01 5.8439794927835464e-02</leafValues></_>
        <_>
          <internalNodes>
            0 -1 238 1.4562572538852692e-01</internalNodes>
          <leafValues>
            -4.5841121673583984e-01 8.8106952607631683e-02</leafValues></_>
        <_>
          <internalNodes>
            0 -1 514 1.7757016420364380e-01</internalNodes>
          <leafValues>
            -3.4879249334335327e-01 1.3802501559257507e-01</leafValues></_>
        <_>
          <internalNodes>
            0 -1 624 2.0411945879459381e-02</internalNodes>
          <leafValues>
            -3.5522542893886566e-02 6.9017887115478516e-01</leafValues></_>
        <_>
          <internalNodes>
            0 -1 199 -9.5089431852102280e-03</internalNodes>
          <leafValues>
            3.1361094117164612e-01 -1.1466660350561142e-01</leafValues></_>
        <_>
          <internalNodes>
            0 -1 473 1.8022283911705017e-02</internalNodes>
          <leafValues>
            -9.4681963324546814e-02 3.9547425508499146e-01</leafValues></_>
        <_>
          <internalNodes>
            0 -1 316 3.8547366857528687e-02</internalNodes>
          <leafValues>
            -7.3986023664474487e-02 5.2785199880599976e-01</leafValues></_>
        <_>
          <internalNodes>
            0 -1 778 -8.1779241561889648e-02</internalNodes>
          <leafValues>
            6.4474999904632568e-01 -5.1533982157707214e-02</leafValues></_>
        <_>
          <internalNodes>
            0 -1 364 3.0739329755306244e-02</internalNodes>
          <leafValues>
            -5.9162732213735580e-02 4.2517817020416260e-01</leafValues></_>
        <_>
          <internalNodes>
            0 -1 335 2.3408070206642151e-02</internalNodes>
          <leafValues>
            -9.9346645176410675e-02 3.3016693592071533e-01</leafValues></_>
        <_>
          <internalNodes>
            0 -1 651 -4.4411132694222033e-04</internalNodes>
          <leafValues>
            -2.9552680253982544e-01 1.1966823786497116e-01</leafValues></_>
        <_>
          <internalNodes>
            0 -1 651 3.8770859828218818e-04</internalNodes>
          <leafValues>
            8.6894117295742035e-02 -2.6757860183715820e-01</leafValues></_>
        <_>
          <internalNodes>
            0 -1 742 -4.7806404531002045e-02</internalNodes>
          <leafValues>
            4.5126456022262573e-01 -5.4029904305934906e-02</leafValues></_>
        <_>
          <internalNodes>
            0 -1 721 2.7736388146877289e-02</internalNodes>
          <leafValues>
            -1.0469564795494080e-01 3.3279189467430115e-01</leafValues></_>
        <_>
          <internalNodes>
            0 -1 539 -5.0580408424139023e-04</internalNodes>
          <leafValues>
            5.7912427932024002e-02 -5.0809073448181152e-01</leafValues></_>
        <_>
          <internalNodes>
            0 -1 349 -1.7985738813877106e-02</internalNodes>
          <leafValues>
            4.8298308253288269e-01 -5.4323043674230576e-02</leafValues></_>
        <_>
          <internalNodes>
            0 -1 169 2.4469475448131561e-01</internalNodes>
          <leafValues>
            3.2764166593551636e-02 -7.1687084436416626e-01</leafValues></_>
        <_>
          <internalNodes>
            0 -1 586 3.7366509437561035e-02</internalNodes>
          <leafValues>
            -5.7277817279100418e-02 4.0823194384574890e-01</leafValues></_>
        <_>
          <internalNodes>
            0 -1 581 1.2337049469351768e-02</internalNodes>
          <leafValues>
            -6.3096933066844940e-02 3.5012587904930115e-01</leafValues></_>
        <_>
          <internalNodes>
            0 -1 338 1.0052798688411713e-01</internalNodes>
          <leafValues>
            -3.4504175186157227e-01 6.4621381461620331e-02</leafValues></_>
        <_>
          <internalNodes>
            0 -1 605 -2.5527942925691605e-03</internalNodes>
          <leafValues>
            2.4607960879802704e-01 -9.9809572100639343e-02</leafValues></_>
        <_>
          <internalNodes>
            0 -1 563 5.7434767950326204e-04</internalNodes>
          <leafValues>
            1.1397252976894379e-01 -2.2625987231731415e-01</leafValues></_>
        <_>
          <internalNodes>
            0 -1 171 -1.7739655077457428e-01</internalNodes>
          <leafValues>
            -5.9217894077301025e-01 3.1217042356729507e-02</leafValues></_>
        <_>
          <internalNodes>
            0 -1 188 -3.4565120935440063e-02</internalNodes>
          <leafValues>
            4.7075173258781433e-01 -4.5268293470144272e-02</leafValues></_>
        <_>
          <internalNodes>
            0 -1 43 1.2024667812511325e-03</internalNodes>
          <leafValues>
            9.9157609045505524e-02 -2.3008856177330017e-01</leafValues></_>
        <_>
          <internalNodes>
            0 -1 111 -3.0431976541876793e-02</internalNodes>
          <leafValues>
            -6.6362804174423218e-01 2.9579402878880501e-02</leafValues></_>
        <_>
          <internalNodes>
            0 -1 694 7.7185145346447825e-04</internalNodes>
          <leafValues>
            3.6603648215532303e-02 -4.3528240919113159e-01</leafValues></_>
        <_>
          <internalNodes>
            0 -1 602 -1.7972648143768311e-02</internalNodes>
          <leafValues>
            4.2233717441558838e-01 -5.6256182491779327e-02</leafValues></_>
        <_>
          <internalNodes>
            0 -1 201 -3.3967081457376480e-02</internalNodes>
          <leafValues>
            2.9807379841804504e-01 -6.7623637616634369e-02</leafValues></_>
        <_>
          <internalNodes>
            0 -1 72 -1.0954292118549347e-01</internalNodes>
          <leafValues>
            -6.3153463602066040e-01 2.9765317216515541e-02</leafValues></_>
        <_>
          <internalNodes>
            0 -1 78 -1.4700754545629025e-02</internalNodes>
          <leafValues>
            -3.0213347077369690e-01 5.3042523562908173e-02</leafValues></_>
        <_>
          <internalNodes>
            0 -1 450 -3.3503010869026184e-02</internalNodes>
          <leafValues>
            -4.1774612665176392e-01 3.8460183888673782e-02</leafValues></_>
        <_>
          <internalNodes>
            0 -1 756 5.3741438314318657e-03</internalNodes>
          <leafValues>
            4.8062209039926529e-02 -3.1438720226287842e-01</leafValues></_>
        <_>
          <internalNodes>
            0 -1 119 3.5619583725929260e-01</internalNodes>
          <leafValues>
            3.1060600653290749e-02 -4.6924352645874023e-01</leafValues></_>
        <_>
          <internalNodes>
            0 -1 352 -3.1797745823860168e-01</internalNodes>
          <leafValues>
            -7.1133774518966675e-01 1.9296284765005112e-02</leafValues></_>
        <_>
          <internalNodes>
            0 -1 544 -7.3112305253744125e-03</internalNodes>
          <leafValues>
            4.6970829367637634e-02 -3.3306267857551575e-01</leafValues></_>
        <_>
          <internalNodes>
            0 -1 17 -1.6087796539068222e-02</internalNodes>
          <leafValues>
            -4.9865582585334778e-01 2.8866885229945183e-02</leafValues></_>
        <_>
          <internalNodes>
            0 -1 26 4.9887216091156006e-01</internalNodes>
          <leafValues>
            4.6452909708023071e-02 -3.0917868018150330e-01</leafValues></_>
        <_>
          <internalNodes>
            0 -1 185 -1.2699458003044128e-01</internalNodes>
          <leafValues>
            -4.7984951734542847e-01 3.0501624569296837e-02</leafValues></_>
        <_>
          <internalNodes>
            0 -1 463 -1.1311502195894718e-02</internalNodes>
          <leafValues>
            2.7028432488441467e-01 -6.1445634812116623e-02</leafValues></_>
        <_>
          <internalNodes>
            0 -1 512 1.3581437990069389e-02</internalNodes>
          <leafValues>
            -8.1350333988666534e-02 1.8971279263496399e-01</leafValues></_>
        <_>
          <internalNodes>
            0 -1 525 -1.9295269623398781e-02</internalNodes>
          <leafValues>
            2.7729281783103943e-01 -5.2218418568372726e-02</leafValues></_>
        <_>
          <internalNodes>
            0 -1 717 1.9998008385300636e-02</internalNodes>
          <leafValues>
            -3.6091893911361694e-02 4.2729702591896057e-01</leafValues></_>
        <_>
          <internalNodes>
            0 -1 494 -4.1426934301853180e-02</internalNodes>
          <leafValues>
            -4.0005421638488770e-01 3.9692249149084091e-02</leafValues></_>
        <_>
          <internalNodes>
            0 -1 554 2.1228987723588943e-02</internalNodes>
          <leafValues>
            3.6241915076971054e-02 -3.8969686627388000e-01</leafValues></_>
        <_>
          <internalNodes>
            0 -1 16 2.3952226620167494e-03</internalNodes>
          <leafValues>
            4.3767496943473816e-02 -3.2996106147766113e-01</leafValues></_>
        <_>
          <internalNodes>
            0 -1 782 -3.7804241292178631e-03</internalNodes>
          <leafValues>
            -1.7464843392372131e-01 7.8687295317649841e-02</leafValues></_>
        <_>
          <internalNodes>
            0 -1 31 3.6693853326141834e-03</internalNodes>
          <leafValues>
            7.4832305312156677e-02 -1.8209245800971985e-01</leafValues></_>
        <_>
          <internalNodes>
            0 -1 266 2.9166492819786072e-01</internalNodes>
          <leafValues>
            1.9874090328812599e-02 -6.7573291063308716e-01</leafValues></_>
        <_>
          <internalNodes>
            0 -1 297 1.9579615443944931e-02</internalNodes>
          <leafValues>
            -6.9464430212974548e-02 2.2318683564662933e-01</leafValues></_>
        <_>
          <internalNodes>
            0 -1 170 -1.6961444169282913e-02</internalNodes>
          <leafValues>
            -3.1218647956848145e-01 4.6967890113592148e-02</leafValues></_>
        <_>
          <internalNodes>
            0 -1 424 3.2809255644679070e-03</internalNodes>
          <leafValues>
            -3.5742484033107758e-02 4.2582416534423828e-01</leafValues></_>
        <_>
          <internalNodes>
            0 -1 381 1.5172520652413368e-02</internalNodes>
          <leafValues>
            -1.5350373089313507e-01 1.0155853629112244e-01</leafValues></_>
        <_>
          <internalNodes>
            0 -1 807 3.1038187444210052e-03</internalNodes>
          <leafValues>
            4.7601122409105301e-02 -3.2017105817794800e-01</leafValues></_>
        <_>
          <internalNodes>
            0 -1 51 -9.4808246940374374e-03</internalNodes>
          <leafValues>
            -3.3554887771606445e-01 4.2855452746152878e-02</leafValues></_>
        <_>
          <internalNodes>
            0 -1 458 3.1141221523284912e-01</internalNodes>
          <leafValues>
            2.5179816409945488e-02 -5.2661585807800293e-01</leafValues></_>
        <_>
          <internalNodes>
            0 -1 721 5.4725769907236099e-02</internalNodes>
          <leafValues>
            -3.2128918915987015e-02 4.9193382263183594e-01</leafValues></_>
        <_>
          <internalNodes>
            0 -1 650 3.6569955409504473e-04</internalNodes>
          <leafValues>
            5.9620622545480728e-02 -2.6155057549476624e-01</leafValues></_>
        <_>
          <internalNodes>
            0 -1 308 8.1933252513408661e-03</internalNodes>
          <leafValues>
            -6.7790299654006958e-02 2.3962834477424622e-01</leafValues></_>
        <_>
          <internalNodes>
            0 -1 783 9.4837299548089504e-04</internalNodes>
          <leafValues>
            4.9682609736919403e-02 -2.6881226897239685e-01</leafValues></_>
        <_>
          <internalNodes>
            0 -1 386 -4.7977417707443237e-03</internalNodes>
          <leafValues>
            2.2352361679077148e-01 -6.2232904136180878e-02</leafValues></_>
        <_>
          <internalNodes>
            0 -1 846 5.8431904762983322e-03</internalNodes>
          <leafValues>
            4.3255049735307693e-02 -3.0703711509704590e-01</leafValues></_>
        <_>
          <internalNodes>
            0 -1 771 3.7979587912559509e-02</internalNodes>
          <leafValues>
            -3.9329152554273605e-02 3.4175404906272888e-01</leafValues></_>
        <_>
          <internalNodes>
            0 -1 268 4.7257624566555023e-02</internalNodes>
          <leafValues>
            3.3814165741205215e-02 -3.8422194123268127e-01</leafValues></_>
        <_>
          <internalNodes>
            0 -1 271 -2.3538544774055481e-02</internalNodes>
          <leafValues>
            3.4910270571708679e-01 -4.0653821080923080e-02</leafValues></_>
        <_>
          <internalNodes>
            0 -1 73 4.0164301171898842e-03</internalNodes>
          <leafValues>
            4.2547997087240219e-02 -3.3926790952682495e-01</leafValues></_>
        <_>
          <internalNodes>
            0 -1 34 -5.1784468814730644e-03</internalNodes>
          <leafValues>
            -4.5614466071128845e-01 2.3924358189105988e-02</leafValues></_>
        <_>
          <internalNodes>
            0 -1 528 -8.1446971744298935e-03</internalNodes>
          <leafValues>
            2.8562965989112854e-01 -4.5470207929611206e-02</leafValues></_>
        <_>
          <internalNodes>
            0 -1 192 1.8715277314186096e-02</internalNodes>
          <leafValues>
            -2.0093236863613129e-01 7.1701243519783020e-02</leafValues></_>
        <_>
          <internalNodes>
            0 -1 256 4.5806053094565868e-03</internalNodes>
          <leafValues>
            -6.4067833125591278e-02 2.1488843858242035e-01</leafValues></_>
        <_>
          <internalNodes>
            0 -1 652 -9.7910570912063122e-04</internalNodes>
          <leafValues>
            -3.6709573864936829e-01 3.1557485461235046e-02</leafValues></_>
        <_>
          <internalNodes>
            0 -1 145 -1.8307122588157654e-01</internalNodes>
          <leafValues>
            -3.2912904024124146e-01 3.4818485379219055e-02</leafValues></_>
        <_>
          <internalNodes>
            0 -1 819 -1.7590086208656430e-03</internalNodes>
          <leafValues>
            -2.4667346477508545e-01 4.8426620662212372e-02</leafValues></_>
        <_>
          <internalNodes>
            0 -1 740 -3.0034691095352173e-02</internalNodes>
          <leafValues>
            3.3916711807250977e-01 -3.6752667278051376e-02</leafValues></_>
        <_>
          <internalNodes>
            0 -1 581 -1.3734439387917519e-02</internalNodes>
          <leafValues>
            2.9796281456947327e-01 -3.8195520639419556e-02</leafValues></_>
        <_>
          <internalNodes>
            0 -1 21 -2.8201031684875488e-01</internalNodes>
          <leafValues>
            -9.7186928987503052e-01 1.2168965302407742e-02</leafValues></_>
        <_>
          <internalNodes>
            0 -1 394 1.5468510985374451e-01</internalNodes>
          <leafValues>
            -1.2076552957296371e-01 9.6440099179744720e-02</leafValues></_>
        <_>
          <internalNodes>
            0 -1 328 2.5235223770141602e-01</internalNodes>
          <leafValues>
            3.0477512627840042e-02 -4.2816373705863953e-01</leafValues></_>
        <_>
          <internalNodes>
            0 -1 158 4.4067983981221914e-04</internalNodes>
          <leafValues>
            1.0529471188783646e-01 -1.2329652160406113e-01</leafValues></_>
        <_>
          <internalNodes>
            0 -1 242 2.8639286756515503e-01</internalNodes>
          <leafValues>
            2.4903010576963425e-02 -4.7728291153907776e-01</leafValues></_>
        <_>
          <internalNodes>
            0 -1 403 -4.9898892641067505e-02</internalNodes>
          <leafValues>
            -3.9559620618820190e-01 2.6541469618678093e-02</leafValues></_>
        <_>
          <internalNodes>
            0 -1 419 -2.8175041079521179e-02</internalNodes>
          <leafValues>
            6.5891498327255249e-01 -1.8764954060316086e-02</leafValues></_>
        <_>
          <internalNodes>
            0 -1 164 2.5406509637832642e-01</internalNodes>
          <leafValues>
            1.8824419006705284e-02 -6.8533420562744141e-01</leafValues></_>
        <_>
          <internalNodes>
            0 -1 725 -5.9953559190034866e-02</internalNodes>
          <leafValues>
            -3.6627912521362305e-01 2.9573712497949600e-02</leafValues></_>
        <_>
          <internalNodes>
            0 -1 750 -9.8539385944604874e-03</internalNodes>
          <leafValues>
            3.8815638422966003e-01 -3.1297277659177780e-02</leafValues></_>
        <_>
          <internalNodes>
            0 -1 27 -9.0164706110954285e-02</internalNodes>
          <leafValues>
            -6.9997620582580566e-01 1.7932588234543800e-02</leafValues></_>
        <_>
          <internalNodes>
            0 -1 89 3.2665237784385681e-02</internalNodes>
          <leafValues>
            3.2331738620996475e-02 -3.4058862924575806e-01</leafValues></_>
        <_>
          <internalNodes>
            0 -1 155 -8.5428906604647636e-03</internalNodes>
          <leafValues>
            -1.9609592854976654e-01 6.7334532737731934e-02</leafValues></_>
        <_>
          <internalNodes>
            0 -1 221 -1.6263431170955300e-03</internalNodes>
          <leafValues>
            -2.5105524063110352e-01 5.0558164715766907e-02</leafValues></_>
        <_>
          <internalNodes>
            0 -1 648 1.1912010610103607e-02</internalNodes>
          <leafValues>
            -3.7839982658624649e-02 3.1404745578765869e-01</leafValues></_>
        <_>
          <internalNodes>
            0 -1 548 2.0266640931367874e-02</internalNodes>
          <leafValues>
            -2.1993249654769897e-02 5.2766555547714233e-01</leafValues></_>
        <_>
          <internalNodes>
            0 -1 58 1.0643580462783575e-03</internalNodes>
          <leafValues>
            5.2130751311779022e-02 -2.3081082105636597e-01</leafValues></_>
        <_>
          <internalNodes>
            0 -1 537 6.9543227553367615e-02</internalNodes>
          <leafValues>
            -1.7575971782207489e-02 7.7593463659286499e-01</leafValues></_>
        <_>
          <internalNodes>
            0 -1 46 6.1954200267791748e-02</internalNodes>
          <leafValues>
            -2.2898241877555847e-02 4.8306170105934143e-01</leafValues></_>
        <_>
          <internalNodes>
            0 -1 806 7.9567059874534607e-02</internalNodes>
          <leafValues>
            -1.6918584704399109e-02 6.5868180990219116e-01</leafValues></_>
        <_>
          <internalNodes>
            0 -1 790 1.5087503194808960e-01</internalNodes>
          <leafValues>
            2.2059699520468712e-02 -6.0123258829116821e-01</leafValues></_>
        <_>
          <internalNodes>
            0 -1 657 -2.9127503512427211e-04</internalNodes>
          <leafValues>
            2.3779902607202530e-02 -4.4659620523452759e-01</leafValues></_>
        <_>
          <internalNodes>
            0 -1 837 1.2408120092004538e-03</internalNodes>
          <leafValues>
            4.3245594948530197e-02 -2.5913551449775696e-01</leafValues></_>
        <_>
          <internalNodes>
            0 -1 106 -1.1503929644823074e-01</internalNodes>
          <leafValues>
            -6.9666278362274170e-01 1.3912632130086422e-02</leafValues></_></weakClassifiers></_>
    <!-- stage 3 -->
    <_>
      <maxWeakCount>100</maxWeakCount>
      <stageThreshold>-1.9048326015472412e+00</stageThreshold>
      <weakClassifiers>
        <_>
          <internalNodes>
            0 -1 354 3.6498233675956726e-02</internalNodes>
          <leafValues>
            -5.5394113063812256e-01 7.3619633913040161e-02</leafValues></_>
        <_>
          <internalNodes>
            0 -1 625 -2.0588681101799011e-02</internalNodes>
          <leafValues>
            3.5760936141014099e-01 -1.5640544891357422e-01</leafValues></_>
        <_>
          <internalNodes>
            0 -1 580 1.6031946241855621e-01</internalNodes>
          <leafValues>
            -2.7370718121528625e-01 1.2644284963607788e-01</leafValues></_>
        <_>
          <internalNodes>
            0 -1 462 3.7382028996944427e-02</internalNodes>
          <leafValues>
            -6.8149209022521973e-02 4.0659067034721375e-01</leafValues></_>
        <_>
          <internalNodes>
            0 -1 385 1.4909722842276096e-02</internalNodes>
          <leafValues>
            -8.6062289774417877e-02 3.6806461215019226e-01</leafValues></_>
        <_>
          <internalNodes>
            0 -1 600 -3.6496864049695432e-04</internalNodes>
          <leafValues>
            -2.8894069790840149e-01 9.3065097928047180e-02</leafValues></_>
        <_>
          <internalNodes>
            0 -1 65 -1.0975403711199760e-02</internalNodes>
          <leafValues>
            3.5240134596824646e-01 -6.4684391021728516e-02</leafValues></_>
        <_>
          <internalNodes>
            0 -1 741 -4.2763147503137589e-03</internalNodes>
          <leafValues>
            2.8677207231521606e-01 -1.1152419447898865e-01</leafValues></_>
        <_>
          <internalNodes>
            0 -1 400 1.0897487401962280e-02</internalNodes>
          <leafValues>
            -8.2317464053630829e-02 2.7884545922279358e-01</leafValues></_>
        <_>
          <internalNodes>
            0 -1 412 2.0868318155407906e-02</internalNodes>
          <leafValues>
            -7.3273450136184692e-02 4.0194156765937805e-01</leafValues></_>
        <_>
          <internalNodes>
            0 -1 591 -7.7544536907225847e-04</internalNodes>
          <leafValues>
            -3.8400897383689880e-01 7.4918456375598907e-02</leafValues></_>
        <_>
          <internalNodes>
            0 -1 637 -7.3087200522422791e-02</internalNodes>
          <leafValues>
            8.7639726698398590e-02 -3.0235037207603455e-01</leafValues></_>
        <_>
          <internalNodes>
            0 -1 817 -4.4179093092679977e-02</internalNodes>
          <leafValues>
            5.7869499921798706e-01 -4.4378776103258133e-02</leafValues></_>
        <_>
          <internalNodes>
            0 -1 747 4.2439185082912445e-02</internalNodes>
          <leafValues>
            -5.9008054435253143e-02 4.2148101329803467e-01</leafValues></_>
        <_>
          <internalNodes>
            0 -1 529 1.4832490123808384e-02</internalNodes>
          <leafValues>
            -8.3091363310813904e-02 2.2836755216121674e-01</leafValues></_>
        <_>
          <internalNodes>
            0 -1 655 7.5774034485220909e-04</internalNodes>
          <leafValues>
            6.5554611384868622e-02 -3.0372706055641174e-01</leafValues></_>
        <_>
          <internalNodes>
            0 -1 245 -1.5306876739487052e-03</internalNodes>
          <leafValues>
            2.5485038757324219e-01 -7.9360455274581909e-02</leafValues></_>
        <_>
          <internalNodes>
            0 -1 371 4.7776424326002598e-03</internalNodes>
          <leafValues>
            -8.6311250925064087e-02 2.0783916115760803e-01</leafValues></_>
        <_>
          <internalNodes>
            0 -1 85 1.7960314871743321e-03</internalNodes>
          <leafValues>
            6.1457432806491852e-02 -2.6089015603065491e-01</leafValues></_>
        <_>
          <internalNodes>
            0 -1 470 6.8112261593341827e-02</internalNodes>
          <leafValues>
            -2.7416947484016418e-01 6.5631262958049774e-02</leafValues></_>
        <_>
          <internalNodes>
            0 -1 411 -9.7002349793910980e-03</internalNodes>
          <leafValues>
            4.1577991843223572e-01 -4.4625807553529739e-02</leafValues></_>
        <_>
          <internalNodes>
            0 -1 715 -1.0836012661457062e-02</internalNodes>
          <leafValues>
            2.0149581134319305e-01 -8.4435991942882538e-02</leafValues></_>
        <_>
          <internalNodes>
            0 -1 236 -9.3620195984840393e-02</internalNodes>
          <leafValues>
            -3.5179141163825989e-01 4.5011933892965317e-02</leafValues></_>
        <_>
          <internalNodes>
            0 -1 59 -6.4475284889340401e-03</internalNodes>
          <leafValues>
            -2.5805434584617615e-01 5.9874553233385086e-02</leafValues></_>
        <_>
          <internalNodes>
            0 -1 315 2.0953569561243057e-02</internalNodes>
          <leafValues>
            -6.0509704053401947e-02 2.9476371407508850e-01</leafValues></_>
        <_>
          <internalNodes>
            0 -1 277 -7.9395603388547897e-03</internalNodes>
          <leafValues>
            2.4828706681728363e-01 -8.4189794957637787e-02</leafValues></_>
        <_>
          <internalNodes>
            0 -1 672 -8.4051504731178284e-02</internalNodes>
          <leafValues>
            -2.4281162023544312e-01 6.1917595565319061e-02</leafValues></_>
        <_>
          <internalNodes>
            0 -1 505 -2.9141854494810104e-02</internalNodes>
          <leafValues>
            -2.4709092080593109e-01 5.6637454777956009e-02</leafValues></_>
        <_>
          <internalNodes>
            0 -1 515 2.6751663535833359e-03</internalNodes>
          <leafValues>
            -6.8544469773769379e-02 2.4280957877635956e-01</leafValues></_>
        <_>
          <internalNodes>
            0 -1 845 1.0321858571842313e-03</internalNodes>
          <leafValues>
            5.4138798266649246e-02 -2.7380150556564331e-01</leafValues></_>
        <_>
          <internalNodes>
            0 -1 274 -3.5112779587507248e-02</internalNodes>
          <leafValues>
            4.1586568951606750e-01 -3.6423213779926300e-02</leafValues></_>
        <_>
          <internalNodes>
            0 -1 67 5.5709145963191986e-02</internalNodes>
          <leafValues>
            -2.2821414470672607e-01 6.5537244081497192e-02</leafValues></_>
        <_>
          <internalNodes>
            0 -1 306 3.7198573350906372e-02</internalNodes>
          <leafValues>
            -5.5193051695823669e-02 3.0254477262496948e-01</leafValues></_>
        <_>
          <internalNodes>
            0 -1 480 -2.0035952329635620e-02</internalNodes>
          <leafValues>
            3.9568191766738892e-01 -3.5004816949367523e-02</leafValues></_>
        <_>
          <internalNodes>
            0 -1 481 -3.7035860121250153e-02</internalNodes>
          <leafValues>
            6.6281288862228394e-02 -2.4241571128368378e-01</leafValues></_>
        <_>
          <internalNodes>
            0 -1 511 1.7709817737340927e-02</internalNodes>
          <leafValues>
            -5.6449137628078461e-02 2.7583363652229309e-01</leafValues></_>
        <_>
          <internalNodes>
            0 -1 798 9.6407821401953697e-03</internalNodes>
          <leafValues>
            4.5541521161794662e-02 -3.1616795063018799e-01</leafValues></_>
        <_>
          <internalNodes>
            0 -1 719 -2.8793402016162872e-02</internalNodes>
          <leafValues>
            4.1716331243515015e-01 -3.8023147732019424e-02</leafValues></_>
        <_>
          <internalNodes>
            0 -1 667 3.1011223793029785e-02</internalNodes>
          <leafValues>
            4.3895456939935684e-02 -3.9095932245254517e-01</leafValues></_>
        <_>
          <internalNodes>
            0 -1 444 -1.5236561186611652e-02</internalNodes>
          <leafValues>
            -1.9176270067691803e-01 8.3602748811244965e-02</leafValues></_>
        <_>
          <internalNodes>
            0 -1 587 1.4544662088155746e-02</internalNodes>
          <leafValues>
            -6.2068130820989609e-02 2.2388030588626862e-01</leafValues></_>
        <_>
          <internalNodes>
            0 -1 668 3.0815149657428265e-03</internalNodes>
          <leafValues>
            4.1260197758674622e-02 -3.4247353672981262e-01</leafValues></_>
        <_>
          <internalNodes>
            0 -1 834 7.6222070492804050e-04</internalNodes>
          <leafValues>
            7.5114943087100983e-02 -1.6715829074382782e-01</leafValues></_>
        <_>
          <internalNodes>
            0 -1 830 1.3866087421774864e-02</internalNodes>
          <leafValues>
            -2.1909849718213081e-02 7.4656915664672852e-01</leafValues></_>
        <_>
          <internalNodes>
            0 -1 29 1.6728447377681732e-01</internalNodes>
          <leafValues>
            -2.1883614361286163e-02 4.9922671914100647e-01</leafValues></_>
        <_>
          <internalNodes>
            0 -1 224 3.0901661515235901e-01</internalNodes>
          <leafValues>
            2.5153227150440216e-02 -5.5017596483230591e-01</leafValues></_>
        <_>
          <internalNodes>
            0 -1 227 -1.5377399325370789e-01</internalNodes>
          <leafValues>
            -7.6461547613143921e-01 1.5545728616416454e-02</leafValues></_>
        <_>
          <internalNodes>
            0 -1 13 6.7283473908901215e-03</internalNodes>
          <leafValues>
            8.0074593424797058e-02 -1.7031177878379822e-01</leafValues></_>
        <_>
          <internalNodes>
            0 -1 91 -5.5408701300621033e-03</internalNodes>
          <leafValues>
            -4.9685880541801453e-01 3.0428381636738777e-02</leafValues></_>
        <_>
          <internalNodes>
            0 -1 598 -4.5411579776555300e-04</internalNodes>
          <leafValues>
            -2.8004786372184753e-01 3.8269754499197006e-02</leafValues></_>
        <_>
          <internalNodes>
            0 -1 523 -6.5144523978233337e-03</internalNodes>
          <leafValues>
            2.2677931189537048e-01 -6.0791518539190292e-02</leafValues></_>
        <_>
          <internalNodes>
            0 -1 318 -3.3109486103057861e-02</internalNodes>
          <leafValues>
            4.1588094830513000e-01 -3.0585177242755890e-02</leafValues></_>
        <_>
          <internalNodes>
            0 -1 565 -1.2441677972674370e-02</internalNodes>
          <leafValues>
            -3.8803985714912415e-01 3.2823689281940460e-02</leafValues></_>
        <_>
          <internalNodes>
            0 -1 712 3.2793510705232620e-02</internalNodes>
          <leafValues>
            -2.6253232732415199e-02 5.1655262708663940e-01</leafValues></_>
        <_>
          <internalNodes>
            0 -1 253 1.6735741496086121e-01</internalNodes>
          <leafValues>
            2.6225846260786057e-02 -5.2881878614425659e-01</leafValues></_>
        <_>
          <internalNodes>
            0 -1 326 9.5591023564338684e-02</internalNodes>
          <leafValues>
            -1.5981994569301605e-01 8.7552852928638458e-02</leafValues></_>
        <_>
          <internalNodes>
            0 -1 140 -1.4854301698505878e-03</internalNodes>
          <leafValues>
            1.0146605968475342e-01 -1.3071477413177490e-01</leafValues></_>
        <_>
          <internalNodes>
            0 -1 599 -1.3334586983546615e-03</internalNodes>
          <leafValues>
            -2.3130309581756592e-01 5.5471427738666534e-02</leafValues></_>
        <_>
          <internalNodes>
            0 -1 128 -2.6473265141248703e-02</internalNodes>
          <leafValues>
            1.1536545306444168e-01 -1.3124074041843414e-01</leafValues></_>
        <_>
          <internalNodes>
            0 -1 509 -1.0576736927032471e-01</internalNodes>
          <leafValues>
            4.0157246589660645e-01 -2.8805939480662346e-02</leafValues></_>
        <_>
          <internalNodes>
            0 -1 497 -1.3760572299361229e-02</internalNodes>
          <leafValues>
            1.7328327894210815e-01 -7.4685856699943542e-02</leafValues></_>
        <_>
          <internalNodes>
            0 -1 165 1.1963922530412674e-02</internalNodes>
          <leafValues>
            3.0037809163331985e-02 -4.0808901190757751e-01</leafValues></_>
        <_>
          <internalNodes>
            0 -1 90 -1.1498669628053904e-03</internalNodes>
          <leafValues>
            -2.5589054822921753e-01 4.5271918177604675e-02</leafValues></_>
        <_>
          <internalNodes>
            0 -1 471 -3.4188392758369446e-01</internalNodes>
          <leafValues>
            -5.2564042806625366e-01 2.1041767671704292e-02</leafValues></_>
        <_>
          <internalNodes>
            0 -1 824 2.1246643736958504e-03</internalNodes>
          <leafValues>
            5.0300054252147675e-02 -2.1936294436454773e-01</leafValues></_>
        <_>
          <internalNodes>
            0 -1 94 4.5832032337784767e-03</internalNodes>
          <leafValues>
            3.5261839628219604e-02 -3.1144824624061584e-01</leafValues></_>
        <_>
          <internalNodes>
            0 -1 230 -2.4002435803413391e-01</internalNodes>
          <leafValues>
            -5.5182743072509766e-01 2.0037120208144188e-02</leafValues></_>
        <_>
          <internalNodes>
            0 -1 257 -2.3749444633722305e-02</internalNodes>
          <leafValues>
            3.2676196098327637e-01 -3.8122698664665222e-02</leafValues></_>
        <_>
          <internalNodes>
            0 -1 115 -9.6362359821796417e-02</internalNodes>
          <leafValues>
            -4.8392519354820251e-01 2.6790171861648560e-02</leafValues></_>
        <_>
          <internalNodes>
            0 -1 19 -5.5337917059659958e-02</internalNodes>
          <leafValues>
            -6.0487776994705200e-01 1.5144876204431057e-02</leafValues></_>
        <_>
          <internalNodes>
            0 -1 769 9.2032626271247864e-03</internalNodes>
          <leafValues>
            -2.8955634683370590e-02 4.2486190795898438e-01</leafValues></_>
        <_>
          <internalNodes>
            0 -1 44 -3.6036111414432526e-03</internalNodes>
          <leafValues>
            -1.7499493062496185e-01 7.2322055697441101e-02</leafValues></_>
        <_>
          <internalNodes>
            0 -1 263 2.8398662805557251e-02</internalNodes>
          <leafValues>
            3.4129824489355087e-02 -3.1140571832656860e-01</leafValues></_>
        <_>
          <internalNodes>
            0 -1 341 5.3125444799661636e-02</internalNodes>
          <leafValues>
            -2.5939483195543289e-02 4.4110774993896484e-01</leafValues></_>
        <_>
          <internalNodes>
            0 -1 438 5.2965693175792694e-03</internalNodes>
          <leafValues>
            8.3811827003955841e-02 -1.6144222021102905e-01</leafValues></_>
        <_>
          <internalNodes>
            0 -1 225 4.4836458563804626e-01</internalNodes>
          <leafValues>
            1.8573854118585587e-02 -5.6699717044830322e-01</leafValues></_>
        <_>
          <internalNodes>
            0 -1 831 9.6038938499987125e-04</internalNodes>
          <leafValues>
            4.4632587581872940e-02 -2.4621868133544922e-01</leafValues></_>
        <_>
          <internalNodes>
            0 -1 443 3.8114368915557861e-02</internalNodes>
          <leafValues>
            2.2018151357769966e-02 -4.9138662219047546e-01</leafValues></_>
        <_>
          <internalNodes>
            0 -1 736 -1.1441158503293991e-01</internalNodes>
          <leafValues>
            -6.7560708522796631e-01 1.4400626532733440e-02</leafValues></_>
        <_>
          <internalNodes>
            0 -1 720 -4.3503597378730774e-02</internalNodes>
          <leafValues>
            4.3412405252456665e-01 -3.4385107457637787e-02</leafValues></_>
        <_>
          <internalNodes>
            0 -1 299 1.0086955130100250e-01</internalNodes>
          <leafValues>
            -2.1002989262342453e-02 4.9525827169418335e-01</leafValues></_>
        <_>
          <internalNodes>
            0 -1 193 -5.7844487018883228e-03</internalNodes>
          <leafValues>
            1.6945359110832214e-01 -7.0924520492553711e-02</leafValues></_>
        <_>
          <internalNodes>
            0 -1 228 -9.4647556543350220e-02</internalNodes>
          <leafValues>
            -3.5167738795280457e-01 3.2064393162727356e-02</leafValues></_>
        <_>
          <internalNodes>
            0 -1 598 1.0657384991645813e-03</internalNodes>
          <leafValues>
            7.8919917345046997e-02 -1.4175784587860107e-01</leafValues></_>
        <_>
          <internalNodes>
            0 -1 314 -1.2110237777233124e-01</internalNodes>
          <leafValues>
            -2.6107275485992432e-01 4.5508492738008499e-02</leafValues></_>
        <_>
          <internalNodes>
            0 -1 177 3.4757751226425171e-01</internalNodes>
          <leafValues>
            3.0882854014635086e-02 -3.9984220266342163e-01</leafValues></_>
        <_>
          <internalNodes>
            0 -1 469 2.1201051771640778e-02</internalNodes>
          <leafValues>
            -8.6471274495124817e-02 1.3945928215980530e-01</leafValues></_>
        <_>
          <internalNodes>
            0 -1 75 -2.8882650658488274e-03</internalNodes>
          <leafValues>
            -2.8226375579833984e-01 4.4058464467525482e-02</leafValues></_>
        <_>
          <internalNodes>
            0 -1 11 3.5207945853471756e-02</internalNodes>
          <leafValues>
            2.9671264812350273e-02 -3.7843370437622070e-01</leafValues></_>
        <_>
          <internalNodes>
            0 -1 205 1.8618490546941757e-02</internalNodes>
          <leafValues>
            -2.6721209287643433e-01 3.9563983678817749e-02</leafValues></_>
        <_>
          <internalNodes>
            0 -1 0 6.1513385735452175e-03</internalNodes>
          <leafValues>
            3.1526625156402588e-02 -3.3721604943275452e-01</leafValues></_>
        <_>
          <internalNodes>
            0 -1 154 2.1942459046840668e-02</internalNodes>
          <leafValues>
            2.6263890787959099e-02 -4.0522697567939758e-01</leafValues></_>
        <_>
          <internalNodes>
            0 -1 562 2.0255595445632935e-03</internalNodes>
          <leafValues>
            4.7695741057395935e-02 -2.3245656490325928e-01</leafValues></_>
        <_>
          <internalNodes>
            0 -1 300 -2.6099234819412231e-03</internalNodes>
          <leafValues>
            4.0373942255973816e-01 -2.8692282736301422e-02</leafValues></_>
        <_>
          <internalNodes>
            0 -1 779 3.5502742975950241e-03</internalNodes>
          <leafValues>
            3.3604770898818970e-02 -3.3895048499107361e-01</leafValues></_>
        <_>
          <internalNodes>
            0 -1 122 1.1838708817958832e-01</internalNodes>
          <leafValues>
            3.4916080534458160e-02 -3.1884142756462097e-01</leafValues></_>
        <_>
          <internalNodes>
            0 -1 669 -3.8207815960049629e-03</internalNodes>
          <leafValues>
            -1.9661711156368256e-01 6.0024507343769073e-02</leafValues></_>
        <_>
          <internalNodes>
            0 -1 840 -1.1365828104317188e-03</internalNodes>
          <leafValues>
            -2.3129065334796906e-01 4.4348642230033875e-02</leafValues></_>
        <_>
          <internalNodes>
            0 -1 838 1.9062779843807220e-02</internalNodes>
          <leafValues>
            1.9787518307566643e-02 -5.1682132482528687e-01</leafValues></_>
        <_>
          <internalNodes>
            0 -1 732 3.6652117967605591e-02</internalNodes>
          <leafValues>
            -3.4908089786767960e-02 3.2144674658775330e-01</leafValues></_></weakClassifiers></_>
    <!-- stage 4 -->
    <_>
      <maxWeakCount>100</maxWeakCount>
      <stageThreshold>-1.8696391582489014e+00</stageThreshold>
      <weakClassifiers>
        <_>
          <internalNodes>
            0 -1 747 4.4741451740264893e-02</internalNodes>
          <leafValues>
            -5.5097746849060059e-01 5.3793102502822876e-02</leafValues></_>
        <_>
          <internalNodes>
            0 -1 634 -4.2343973182141781e-03</internalNodes>
          <leafValues>
            1.4607052505016327e-01 -2.1535204350948334e-01</leafValues></_>
        <_>
          <internalNodes>
            0 -1 546 -2.5780174881219864e-02</internalNodes>
          <leafValues>
            1.0005428642034531e-01 -2.9358825087547302e-01</leafValues></_>
        <_>
          <internalNodes>
            0 -1 371 7.5142690911889076e-03</internalNodes>
          <leafValues>
            -9.7063779830932617e-02 2.7903702855110168e-01</leafValues></_>
        <_>
          <internalNodes>
            0 -1 777 -8.3330452442169189e-02</internalNodes>
          <leafValues>
            4.7188895940780640e-01 -1.3445564545691013e-02</leafValues></_>
        <_>
          <internalNodes>
            0 -1 426 1.0981999337673187e-02</internalNodes>
          <leafValues>
            -7.4234485626220703e-02 3.8245123624801636e-01</leafValues></_>
        <_>
          <internalNodes>
            0 -1 259 9.7393587231636047e-02</internalNodes>
          <leafValues>
            -5.1291175186634064e-02 5.5772620439529419e-01</leafValues></_>
        <_>
          <internalNodes>
            0 -1 487 -2.9365594964474440e-03</internalNodes>
          <leafValues>
            -4.3899434804916382e-01 5.6656785309314728e-02</leafValues></_>
        <_>
          <internalNodes>
            0 -1 590 -1.0665206238627434e-02</internalNodes>
          <leafValues>
            4.8443743586540222e-01 -4.2230203747749329e-02</leafValues></_>
        <_>
          <internalNodes>
            0 -1 478 -2.6837144047021866e-02</internalNodes>
          <leafValues>
            3.5178205370903015e-01 -8.1888847053050995e-02</leafValues></_>
        <_>
          <internalNodes>
            0 -1 280 8.4734104573726654e-02</internalNodes>
          <leafValues>
            -5.9664390981197357e-02 4.0003734827041626e-01</leafValues></_>
        <_>
          <internalNodes>
            0 -1 693 3.1110664713196456e-04</internalNodes>
          <leafValues>
            1.1533506214618683e-01 -2.0674207806587219e-01</leafValues></_>
        <_>
          <internalNodes>
            0 -1 815 3.3877465873956680e-02</internalNodes>
          <leafValues>
            -5.3717277944087982e-02 6.0886007547378540e-01</leafValues></_>
        <_>
          <internalNodes>
            0 -1 651 -3.6854858626611531e-04</internalNodes>
          <leafValues>
            -2.4210956692695618e-01 1.0581201314926147e-01</leafValues></_>
        <_>
          <internalNodes>
            0 -1 404 8.3028245717287064e-03</internalNodes>
          <leafValues>
            -6.7036263644695282e-02 3.4826469421386719e-01</leafValues></_>
        <_>
          <internalNodes>
            0 -1 277 -9.4248782843351364e-03</internalNodes>
          <leafValues>
            2.5203597545623779e-01 -9.0462416410446167e-02</leafValues></_>
        <_>
          <internalNodes>
            0 -1 207 1.2580138444900513e-01</internalNodes>
          <leafValues>
            -7.5127460062503815e-02 2.2997313737869263e-01</leafValues></_>
        <_>
          <internalNodes>
            0 -1 171 -9.9342033267021179e-02</internalNodes>
          <leafValues>
            -2.9296365380287170e-01 5.4805912077426910e-02</leafValues></_>
        <_>
          <internalNodes>
            0 -1 50 -9.1606900095939636e-03</internalNodes>
          <leafValues>
            -2.6885497570037842e-01 7.1656435728073120e-02</leafValues></_>
        <_>
          <internalNodes>
            0 -1 336 7.4501745402812958e-02</internalNodes>
          <leafValues>
            5.7604059576988220e-02 -2.8963690996170044e-01</leafValues></_>
        <_>
          <internalNodes>
            0 -1 570 -3.0176001600921154e-03</internalNodes>
          <leafValues>
            1.9894526898860931e-01 -1.0997473448514938e-01</leafValues></_>
        <_>
          <internalNodes>
            0 -1 399 5.3820431232452393e-02</internalNodes>
          <leafValues>
            -8.4699869155883789e-02 2.0342025160789490e-01</leafValues></_>
        <_>
          <internalNodes>
            0 -1 213 -1.0290349600836635e-03</internalNodes>
          <leafValues>
            1.2250084429979324e-01 -1.3830102980136871e-01</leafValues></_>
        <_>
          <internalNodes>
            0 -1 162 1.0482065379619598e-02</internalNodes>
          <leafValues>
            6.6680334508419037e-02 -2.4732191860675812e-01</leafValues></_>
        <_>
          <internalNodes>
            0 -1 441 2.9668677598237991e-02</internalNodes>
          <leafValues>
            2.6138404384255409e-02 -4.8509296774864197e-01</leafValues></_>
        <_>
          <internalNodes>
            0 -1 107 8.5766062140464783e-02</internalNodes>
          <leafValues>
            -4.0525995194911957e-02 4.1798341274261475e-01</leafValues></_>
        <_>
          <internalNodes>
            0 -1 754 2.4063363671302795e-02</internalNodes>
          <leafValues>
            4.8264835029840469e-02 -3.0222862958908081e-01</leafValues></_>
        <_>
          <internalNodes>
            0 -1 638 -3.1996130943298340e-02</internalNodes>
          <leafValues>
            3.9573973417282104e-01 -4.2952779680490494e-02</leafValues></_>
        <_>
          <internalNodes>
            0 -1 480 -2.0035952329635620e-02</internalNodes>
          <leafValues>
            3.9741408824920654e-01 -3.8720197975635529e-02</leafValues></_>
        <_>
          <internalNodes>
            0 -1 599 1.1579019483178854e-03</internalNodes>
          <leafValues>
            7.4321381747722626e-02 -2.0827384293079376e-01</leafValues></_>
        <_>
          <internalNodes>
            0 -1 802 2.3475096095353365e-03</internalNodes>
          <leafValues>
            5.8429703116416931e-02 -2.4376362562179565e-01</leafValues></_>
        <_>
          <internalNodes>
            0 -1 380 -8.2631729543209076e-02</internalNodes>
          <leafValues>
            7.1749567985534668e-01 -2.1889038383960724e-02</leafValues></_>
        <_>
          <internalNodes>
            0 -1 489 -5.6119416840374470e-03</internalNodes>
          <leafValues>
            3.6348614841699600e-02 -4.1050383448600769e-01</leafValues></_>
        <_>
          <internalNodes>
            0 -1 358 1.5478421747684479e-01</internalNodes>
          <leafValues>
            -2.7924777939915657e-02 5.8334779739379883e-01</leafValues></_>
        <_>
          <internalNodes>
            0 -1 136 3.3116146922111511e-02</internalNodes>
          <leafValues>
            -5.4673202335834503e-02 2.5942337512969971e-01</leafValues></_>
        <_>
          <internalNodes>
            0 -1 727 -3.0577674508094788e-02</internalNodes>
          <leafValues>
            3.0521911382675171e-01 -4.9514725804328918e-02</leafValues></_>
        <_>
          <internalNodes>
            0 -1 440 2.0423721522092819e-02</internalNodes>
          <leafValues>
            5.9267401695251465e-02 -2.3689907789230347e-01</leafValues></_>
        <_>
          <internalNodes>
            0 -1 357 -1.8598279356956482e-01</internalNodes>
          <leafValues>
            -3.5957631468772888e-01 3.7240371108055115e-02</leafValues></_>
        <_>
          <internalNodes>
            0 -1 22 -3.4996729809790850e-03</internalNodes>
          <leafValues>
            -2.4971406161785126e-01 4.8262495547533035e-02</leafValues></_>
        <_>
          <internalNodes>
            0 -1 2 1.3543624430894852e-02</internalNodes>
          <leafValues>
            3.7935718894004822e-02 -3.7439873814582825e-01</leafValues></_>
        <_>
          <internalNodes>
            0 -1 475 -1.3495929539203644e-02</internalNodes>
          <leafValues>
            3.0958896875381470e-01 -4.5093037188053131e-02</leafValues></_>
        <_>
          <internalNodes>
            0 -1 584 -1.8400540575385094e-03</internalNodes>
          <leafValues>
            2.0565798878669739e-01 -7.1102954447269440e-02</leafValues></_>
        <_>
          <internalNodes>
            0 -1 620 -2.7930554933845997e-03</internalNodes>
          <leafValues>
            1.2849660217761993e-01 -1.1406103521585464e-01</leafValues></_>
        <_>
          <internalNodes>
            0 -1 457 -6.1191126704216003e-02</internalNodes>
          <leafValues>
            -2.5429198145866394e-01 7.1703627705574036e-02</leafValues></_>
        <_>
          <internalNodes>
            0 -1 398 -3.3990822732448578e-02</internalNodes>
          <leafValues>
            2.8376123309135437e-01 -4.9948483705520630e-02</leafValues></_>
        <_>
          <internalNodes>
            0 -1 645 4.1525793494656682e-04</internalNodes>
          <leafValues>
            6.5561443567276001e-02 -2.0562674105167389e-01</leafValues></_>
        <_>
          <internalNodes>
            0 -1 512 1.2680590152740479e-02</internalNodes>
          <leafValues>
            -8.0452196300029755e-02 1.7203189432621002e-01</leafValues></_>
        <_>
          <internalNodes>
            0 -1 199 -1.1330462060868740e-02</internalNodes>
          <leafValues>
            2.1461457014083862e-01 -6.3560992479324341e-02</leafValues></_>
        <_>
          <internalNodes>
            0 -1 276 1.9642224907875061e-01</internalNodes>
          <leafValues>
            -1.8717004358768463e-01 7.0622876286506653e-02</leafValues></_>
        <_>
          <internalNodes>
            0 -1 187 -6.6390996798872948e-03</internalNodes>
          <leafValues>
            1.4947310090065002e-01 -8.8175557553768158e-02</leafValues></_>
        <_>
          <internalNodes>
            0 -1 412 2.6065619662404060e-02</internalNodes>
          <leafValues>
            -4.2068537324666977e-02 3.1305158138275146e-01</leafValues></_>
        <_>
          <internalNodes>
            0 -1 218 -2.7321892976760864e-01</internalNodes>
          <leafValues>
            5.9470242261886597e-01 -2.0595617592334747e-02</leafValues></_>
        <_>
          <internalNodes>
            0 -1 391 -1.4188840985298157e-02</internalNodes>
          <leafValues>
            -4.2419993877410889e-01 3.3585086464881897e-02</leafValues></_>
        <_>
          <internalNodes>
            0 -1 86 -1.7234198749065399e-02</internalNodes>
          <leafValues>
            -1.9741432368755341e-01 6.5947525203227997e-02</leafValues></_>
        <_>
          <internalNodes>
            0 -1 320 9.1850623488426208e-02</internalNodes>
          <leafValues>
            -1.6358805820345879e-02 9.0387791395187378e-01</leafValues></_>
        <_>
          <internalNodes>
            0 -1 764 1.2465879321098328e-02</internalNodes>
          <leafValues>
            -1.1736166663467884e-02 7.5032931566238403e-01</leafValues></_>
        <_>
          <internalNodes>
            0 -1 670 1.4756356831640005e-03</internalNodes>
          <leafValues>
            6.7943759262561798e-02 -1.8145863711833954e-01</leafValues></_>
        <_>
          <internalNodes>
            0 -1 252 4.5980952680110931e-02</internalNodes>
          <leafValues>
            -1.9682331010699272e-02 7.1764302253723145e-01</leafValues></_>
        <_>
          <internalNodes>
            0 -1 344 1.4416493475437164e-01</internalNodes>
          <leafValues>
            3.5639762878417969e-02 -4.8643237352371216e-01</leafValues></_>
        <_>
          <internalNodes>
            0 -1 41 1.7144458368420601e-02</internalNodes>
          <leafValues>
            9.1519601643085480e-02 -1.2700167298316956e-01</leafValues></_>
        <_>
          <internalNodes>
            0 -1 748 2.5977130979299545e-02</internalNodes>
          <leafValues>
            -5.9580359607934952e-02 2.1467198431491852e-01</leafValues></_>
        <_>
          <internalNodes>
            0 -1 102 6.8806409835815430e-02</internalNodes>
          <leafValues>
            2.2812919691205025e-02 -5.5674409866333008e-01</leafValues></_>
        <_>
          <internalNodes>
            0 -1 100 -3.8367065135389566e-03</internalNodes>
          <leafValues>
            -2.0283921062946320e-01 5.7670604437589645e-02</leafValues></_>
        <_>
          <internalNodes>
            0 -1 323 -5.3669415414333344e-02</internalNodes>
          <leafValues>
            1.5096637606620789e-01 -9.0896598994731903e-02</leafValues></_>
        <_>
          <internalNodes>
            0 -1 377 1.3634168542921543e-02</internalNodes>
          <leafValues>
            -2.6770940050482750e-02 4.7988167405128479e-01</leafValues></_>
        <_>
          <internalNodes>
            0 -1 663 -1.5467276796698570e-02</internalNodes>
          <leafValues>
            -2.7781695127487183e-01 4.3925445526838303e-02</leafValues></_>
        <_>
          <internalNodes>
            0 -1 378 -1.7077028751373291e-02</internalNodes>
          <leafValues>
            2.3732437193393707e-01 -4.7120787203311920e-02</leafValues></_>
        <_>
          <internalNodes>
            0 -1 557 -8.5551850497722626e-03</internalNodes>
          <leafValues>
            1.8573860824108124e-01 -6.7485451698303223e-02</leafValues></_>
        <_>
          <internalNodes>
            0 -1 433 3.3948838710784912e-02</internalNodes>
          <leafValues>
            -2.5388453155755997e-02 4.5396950840950012e-01</leafValues></_>
        <_>
          <internalNodes>
            0 -1 791 3.2862783409655094e-03</internalNodes>
          <leafValues>
            -1.7259413376450539e-02 5.9647506475448608e-01</leafValues></_>
        <_>
          <internalNodes>
            0 -1 803 3.4769019111990929e-03</internalNodes>
          <leafValues>
            6.7297294735908508e-02 -1.7577563226222992e-01</leafValues></_>
        <_>
          <internalNodes>
            0 -1 52 2.9236816335469484e-03</internalNodes>
          <leafValues>
            8.0608174204826355e-02 -1.4097434282302856e-01</leafValues></_>
        <_>
          <internalNodes>
            0 -1 114 2.7757417410612106e-03</internalNodes>
          <leafValues>
            8.8729381561279297e-02 -1.5416240692138672e-01</leafValues></_>
        <_>
          <internalNodes>
            0 -1 251 6.6150426864624023e-03</internalNodes>
          <leafValues>
            -6.2064014375209808e-02 2.3033764958381653e-01</leafValues></_>
        <_>
          <internalNodes>
            0 -1 127 7.2644846513867378e-03</internalNodes>
          <leafValues>
            -9.6930019557476044e-02 1.5759775042533875e-01</leafValues></_>
        <_>
          <internalNodes>
            0 -1 533 1.0754399001598358e-01</internalNodes>
          <leafValues>
            -1.2368752621114254e-02 9.6844130754470825e-01</leafValues></_>
        <_>
          <internalNodes>
            0 -1 265 -1.7142528668045998e-02</internalNodes>
          <leafValues>
            2.4729913473129272e-01 -4.6331562101840973e-02</leafValues></_>
        <_>
          <internalNodes>
            0 -1 807 2.0758698228746653e-03</internalNodes>
          <leafValues>
            4.9987550824880600e-02 -2.3895727097988129e-01</leafValues></_>
        <_>
          <internalNodes>
            0 -1 310 6.9527134299278259e-02</internalNodes>
          <leafValues>
            -1.4334183931350708e-01 9.1895669698715210e-02</leafValues></_>
        <_>
          <internalNodes>
            0 -1 665 -1.2215713039040565e-02</internalNodes>
          <leafValues>
            2.6695013046264648e-01 -5.2134994417428970e-02</leafValues></_>
        <_>
          <internalNodes>
            0 -1 847 -7.0707187987864017e-03</internalNodes>
          <leafValues>
            -1.7840506136417389e-01 7.0103056728839874e-02</leafValues></_>
        <_>
          <internalNodes>
            0 -1 60 -4.9150455743074417e-03</internalNodes>
          <leafValues>
            -2.2549423575401306e-01 5.2382811903953552e-02</leafValues></_>
        <_>
          <internalNodes>
            0 -1 810 1.9567929208278656e-02</internalNodes>
          <leafValues>
            -1.6718938946723938e-02 7.7666586637496948e-01</leafValues></_>
        <_>
          <internalNodes>
            0 -1 193 1.2582981958985329e-02</internalNodes>
          <leafValues>
            -5.1558546721935272e-02 2.0276550948619843e-01</leafValues></_>
        <_>
          <internalNodes>
            0 -1 250 5.7346563786268234e-02</internalNodes>
          <leafValues>
            1.7342530190944672e-02 -6.0718858242034912e-01</leafValues></_>
        <_>
          <internalNodes>
            0 -1 773 -8.7107166647911072e-02</internalNodes>
          <leafValues>
            9.0166145563125610e-01 -1.5080202370882034e-02</leafValues></_>
        <_>
          <internalNodes>
            0 -1 796 5.4061394184827805e-03</internalNodes>
          <leafValues>
            3.4222856163978577e-02 -3.7605845928192139e-01</leafValues></_>
        <_>
          <internalNodes>
            0 -1 506 6.5915021114051342e-03</internalNodes>
          <leafValues>
            -5.6402083486318588e-02 1.9173231720924377e-01</leafValues></_>
        <_>
          <internalNodes>
            0 -1 232 -1.0259037837386131e-02</internalNodes>
          <leafValues>
            -2.5147026777267456e-01 4.6013444662094116e-02</leafValues></_>
        <_>
          <internalNodes>
            0 -1 160 1.4911951497197151e-02</internalNodes>
          <leafValues>
            3.0009657144546509e-02 -3.6059376597404480e-01</leafValues></_>
        <_>
          <internalNodes>
            0 -1 216 2.7961907908320427e-02</internalNodes>
          <leafValues>
            -2.1032072603702545e-02 5.6238776445388794e-01</leafValues></_>
        <_>
          <internalNodes>
            0 -1 602 -1.5314007177948952e-02</internalNodes>
          <leafValues>
            2.6729872822761536e-01 -3.6844063550233841e-02</leafValues></_>
        <_>
          <internalNodes>
            0 -1 787 -2.1861400455236435e-03</internalNodes>
          <leafValues>
            1.4778436720371246e-01 -7.3005981743335724e-02</leafValues></_>
        <_>
          <internalNodes>
            0 -1 490 2.1486032754182816e-02</internalNodes>
          <leafValues>
            -1.2817910313606262e-01 8.3140559494495392e-02</leafValues></_>
        <_>
          <internalNodes>
            0 -1 249 5.7003283873200417e-03</internalNodes>
          <leafValues>
            6.1039235442876816e-02 -1.9068376719951630e-01</leafValues></_>
        <_>
          <internalNodes>
            0 -1 182 -7.5559943914413452e-02</internalNodes>
          <leafValues>
            7.7853667736053467e-01 -1.5079216100275517e-02</leafValues></_>
        <_>
          <internalNodes>
            0 -1 708 -1.2675219774246216e-01</internalNodes>
          <leafValues>
            -5.3246861696243286e-01 2.3669749498367310e-02</leafValues></_>
        <_>
          <internalNodes>
            0 -1 526 -4.3926261365413666e-02</internalNodes>
          <leafValues>
            5.9277623891830444e-01 -2.2367829456925392e-02</leafValues></_>
        <_>
          <internalNodes>
            0 -1 394 1.5590755641460419e-01</internalNodes>
          <leafValues>
            -1.1925273388624191e-01 9.7793549299240112e-02</leafValues></_>
        <_>
          <internalNodes>
            0 -1 534 -1.7307892441749573e-02</internalNodes>
          <leafValues>
            -6.1652088165283203e-01 2.0552521571516991e-02</leafValues></_></weakClassifiers></_>
    <!-- stage 5 -->
    <_>
      <maxWeakCount>100</maxWeakCount>
      <stageThreshold>-2.0200519561767578e+00</stageThreshold>
      <weakClassifiers>
        <_>
          <internalNodes>
            0 -1 724 6.1541825532913208e-02</internalNodes>
          <leafValues>
            -5.4537373781204224e-01 8.9528374373912811e-02</leafValues></_>
        <_>
          <internalNodes>
            0 -1 260 1.0955850780010223e-01</internalNodes>
          <leafValues>
            -1.0704240202903748e-01 5.4764062166213989e-01</leafValues></_>
        <_>
          <internalNodes>
            0 -1 474 2.6738377287983894e-02</internalNodes>
          <leafValues>
            -9.1773353517055511e-02 3.3350402116775513e-01</leafValues></_>
        <_>
          <internalNodes>
            0 -1 826 -3.4363806247711182e-02</internalNodes>
          <leafValues>
            7.5196558237075806e-01 -3.3864095807075500e-02</leafValues></_>
        <_>
          <internalNodes>
            0 -1 632 6.1656394973397255e-03</internalNodes>
          <leafValues>
            -5.7079259306192398e-02 4.0586033463478088e-01</leafValues></_>
        <_>
          <internalNodes>
            0 -1 522 6.8402767181396484e-02</internalNodes>
          <leafValues>
            -3.1607070565223694e-01 8.0679692327976227e-02</leafValues></_>
        <_>
          <internalNodes>
            0 -1 694 6.3514825887978077e-04</internalNodes>
          <leafValues>
            4.3037645518779755e-02 -5.0284272432327271e-01</leafValues></_>
        <_>
          <internalNodes>
            0 -1 139 8.7584201246500015e-03</internalNodes>
          <leafValues>
            -5.0163868814706802e-02 3.9971524477005005e-01</leafValues></_>
        <_>
          <internalNodes>
            0 -1 772 5.5095814168453217e-02</internalNodes>
          <leafValues>
            -6.0291383415460587e-02 3.6883091926574707e-01</leafValues></_>
        <_>
          <internalNodes>
            0 -1 211 1.2801142036914825e-01</internalNodes>
          <leafValues>
            -1.8689562380313873e-01 1.4703658223152161e-01</leafValues></_>
        <_>
          <internalNodes>
            0 -1 465 1.2487025232985616e-03</internalNodes>
          <leafValues>
            2.0527406036853790e-01 -1.1621488630771637e-01</leafValues></_>
        <_>
          <internalNodes>
            0 -1 356 -2.6038780342787504e-03</internalNodes>
          <leafValues>
            2.8424096107482910e-01 -5.4268199950456619e-02</leafValues></_>
        <_>
          <internalNodes>
            0 -1 293 -1.4712644740939140e-02</internalNodes>
          <leafValues>
            4.0530323982238770e-01 -6.1029359698295593e-02</leafValues></_>
        <_>
          <internalNodes>
            0 -1 397 -1.3480734080076218e-02</internalNodes>
          <leafValues>
            3.4264644980430603e-01 -5.7044222950935364e-02</leafValues></_>
        <_>
          <internalNodes>
            0 -1 292 8.5340045392513275e-02</internalNodes>
          <leafValues>
            -3.1661677360534668e-01 7.1044623851776123e-02</leafValues></_>
        <_>
          <internalNodes>
            0 -1 176 3.6365258693695068e-01</internalNodes>
          <leafValues>
            8.2746177911758423e-02 -2.5680211186408997e-01</leafValues></_>
        <_>
          <internalNodes>
            0 -1 524 -4.5177653431892395e-02</internalNodes>
          <leafValues>
            4.8273596167564392e-01 -4.6733353286981583e-02</leafValues></_>
        <_>
          <internalNodes>
            0 -1 842 1.6095268074423075e-03</internalNodes>
          <leafValues>
            8.5243180394172668e-02 -2.1048565208911896e-01</leafValues></_>
        <_>
          <internalNodes>
            0 -1 178 2.2789165377616882e-01</internalNodes>
          <leafValues>
            -2.3349921405315399e-01 7.9360648989677429e-02</leafValues></_>
        <_>
          <internalNodes>
            0 -1 477 -1.7998456954956055e-02</internalNodes>
          <leafValues>
            3.6887902021408081e-01 -4.5856978744268417e-02</leafValues></_>
        <_>
          <internalNodes>
            0 -1 644 -4.8402725951746106e-04</internalNodes>
          <leafValues>
            -4.5665910840034485e-01 4.2236950248479843e-02</leafValues></_>
        <_>
          <internalNodes>
            0 -1 48 1.1737582972273231e-03</internalNodes>
          <leafValues>
            9.6112065017223358e-02 -1.7210903763771057e-01</leafValues></_>
        <_>
          <internalNodes>
            0 -1 49 -1.6983352601528168e-02</internalNodes>
          <leafValues>
            3.4223154187202454e-01 -5.7747300714254379e-02</leafValues></_>
        <_>
          <internalNodes>
            0 -1 98 -2.3925042152404785e-01</internalNodes>
          <leafValues>
            -5.8488947153091431e-01 2.6757754385471344e-02</leafValues></_>
        <_>
          <internalNodes>
            0 -1 101 2.4648961424827576e-01</internalNodes>
          <leafValues>
            -2.6832377538084984e-02 7.0618164539337158e-01</leafValues></_>
        <_>
          <internalNodes>
            0 -1 120 -2.2774413228034973e-01</internalNodes>
          <leafValues>
            -6.2728869915008545e-01 3.0934037640690804e-02</leafValues></_>
        <_>
          <internalNodes>
            0 -1 110 -1.2117609381675720e-02</internalNodes>
          <leafValues>
            -3.7748199701309204e-01 3.6641206592321396e-02</leafValues></_>
        <_>
          <internalNodes>
            0 -1 144 -1.8041679263114929e-01</internalNodes>
          <leafValues>
            -4.3394789099693298e-01 3.9166323840618134e-02</leafValues></_>
        <_>
          <internalNodes>
            0 -1 201 -3.4085400402545929e-02</internalNodes>
          <leafValues>
            2.5358042120933533e-01 -6.6792756319046021e-02</leafValues></_>
        <_>
          <internalNodes>
            0 -1 423 -1.1919005215167999e-01</internalNodes>
          <leafValues>
            9.6691660583019257e-02 -1.6757565736770630e-01</leafValues></_>
        <_>
          <internalNodes>
            0 -1 405 1.8621794879436493e-02</internalNodes>
          <leafValues>
            -3.2378759235143661e-02 5.8834463357925415e-01</leafValues></_>
        <_>
          <internalNodes>
            0 -1 87 -1.2425619934219867e-04</internalNodes>
          <leafValues>
            1.0263794660568237e-01 -1.6685944795608521e-01</leafValues></_>
        <_>
          <internalNodes>
            0 -1 345 -5.6400917470455170e-02</internalNodes>
          <leafValues>
            5.0399732589721680e-01 -3.4790225327014923e-02</leafValues></_>
        <_>
          <internalNodes>
            0 -1 575 -4.4731706380844116e-02</internalNodes>
          <leafValues>
            -3.5506114363670349e-01 4.9360722303390503e-02</leafValues></_>
        <_>
          <internalNodes>
            0 -1 482 -8.6665034294128418e-02</internalNodes>
          <leafValues>
            9.8882012069225311e-02 -1.5288703143596649e-01</leafValues></_>
        <_>
          <internalNodes>
            0 -1 545 -1.4126884937286377e-01</internalNodes>
          <leafValues>
            -3.4648060798645020e-01 4.5910935848951340e-02</leafValues></_>
        <_>
          <internalNodes>
            0 -1 508 6.5029636025428772e-02</internalNodes>
          <leafValues>
            -8.3299942314624786e-02 1.9727864861488342e-01</leafValues></_>
        <_>
          <internalNodes>
            0 -1 530 -4.1810004040598869e-03</internalNodes>
          <leafValues>
            2.6886206865310669e-01 -5.9715937823057175e-02</leafValues></_>
        <_>
          <internalNodes>
            0 -1 9 -4.6315394341945648e-02</internalNodes>
          <leafValues>
            -4.8517668247222900e-01 3.0721630901098251e-02</leafValues></_>
        <_>
          <internalNodes>
            0 -1 167 -1.0167756117880344e-03</internalNodes>
          <leafValues>
            1.5314900875091553e-01 -1.1108530312776566e-01</leafValues></_>
        <_>
          <internalNodes>
            0 -1 659 -7.6035037636756897e-04</internalNodes>
          <leafValues>
            -3.1208851933479309e-01 5.0137273967266083e-02</leafValues></_>
        <_>
          <internalNodes>
            0 -1 84 -3.2130384352058172e-03</internalNodes>
          <leafValues>
            -2.7323177456855774e-01 4.8810087144374847e-02</leafValues></_>
        <_>
          <internalNodes>
            0 -1 138 -4.3959047645330429e-02</internalNodes>
          <leafValues>
            -5.2585530281066895e-01 2.4150535464286804e-02</leafValues></_>
        <_>
          <internalNodes>
            0 -1 786 -4.4211722910404205e-02</internalNodes>
          <leafValues>
            6.5251463651657104e-01 -2.2055689245462418e-02</leafValues></_>
        <_>
          <internalNodes>
            0 -1 269 5.7904206216335297e-02</internalNodes>
          <leafValues>
            3.5717818886041641e-02 -3.9753669500350952e-01</leafValues></_>
        <_>
          <internalNodes>
            0 -1 32 4.2172420024871826e-01</internalNodes>
          <leafValues>
            2.4432368576526642e-02 -5.1971298456192017e-01</leafValues></_>
        <_>
          <internalNodes>
            0 -1 93 6.2575023621320724e-03</internalNodes>
          <leafValues>
            2.1280065178871155e-02 -5.8905220031738281e-01</leafValues></_>
        <_>
          <internalNodes>
            0 -1 80 6.5385133028030396e-02</internalNodes>
          <leafValues>
            2.8499005362391472e-02 -4.7376686334609985e-01</leafValues></_>
        <_>
          <internalNodes>
            0 -1 97 -1.2863895297050476e-01</internalNodes>
          <leafValues>
            -5.8606189489364624e-01 1.7762565985321999e-02</leafValues></_>
        <_>
          <internalNodes>
            0 -1 500 -1.4582307077944279e-02</internalNodes>
          <leafValues>
            -3.1801086664199829e-01 3.7735704332590103e-02</leafValues></_>
        <_>
          <internalNodes>
            0 -1 498 -5.8651464059948921e-03</internalNodes>
          <leafValues>
            1.6295503079891205e-01 -8.7403669953346252e-02</leafValues></_>
        <_>
          <internalNodes>
            0 -1 697 -1.0144955012947321e-03</internalNodes>
          <leafValues>
            2.0936125516891479e-01 -7.6494529843330383e-02</leafValues></_>
        <_>
          <internalNodes>
            0 -1 668 3.2381175551563501e-03</internalNodes>
          <leafValues>
            3.7824157625436783e-02 -3.6214968562126160e-01</leafValues></_>
        <_>
          <internalNodes>
            0 -1 551 1.1671038344502449e-02</internalNodes>
          <leafValues>
            5.3223025053739548e-02 -2.6275274157524109e-01</leafValues></_>
        <_>
          <internalNodes>
            0 -1 571 3.1998418271541595e-03</internalNodes>
          <leafValues>
            -1.0176177322864532e-01 1.4033609628677368e-01</leafValues></_>
        <_>
          <internalNodes>
            0 -1 600 3.6219792673364282e-04</internalNodes>
          <leafValues>
            1.1580520123243332e-01 -2.0363025367259979e-01</leafValues></_>
        <_>
          <internalNodes>
            0 -1 190 2.3365109227597713e-03</internalNodes>
          <leafValues>
            1.0161808133125305e-01 -1.5081131458282471e-01</leafValues></_>
        <_>
          <internalNodes>
            0 -1 520 -3.8713691756129265e-03</internalNodes>
          <leafValues>
            2.2161005437374115e-01 -6.6695019602775574e-02</leafValues></_>
        <_>
          <internalNodes>
            0 -1 417 -1.1201013624668121e-01</internalNodes>
          <leafValues>
            -5.5566233396530151e-01 2.5935858488082886e-02</leafValues></_>
        <_>
          <internalNodes>
            0 -1 547 1.1939749121665955e-02</internalNodes>
          <leafValues>
            -2.9808342456817627e-02 5.4778116941452026e-01</leafValues></_>
        <_>
          <internalNodes>
            0 -1 689 -1.4029181003570557e-01</internalNodes>
          <leafValues>
            -6.9141441583633423e-01 2.3109698668122292e-02</leafValues></_>
        <_>
          <internalNodes>
            0 -1 282 8.5221640765666962e-02</internalNodes>
          <leafValues>
            5.1121123135089874e-02 -2.4348278343677521e-01</leafValues></_>
        <_>
          <internalNodes>
            0 -1 365 7.0882616564631462e-03</internalNodes>
          <leafValues>
            -7.2572007775306702e-02 3.0404886603355408e-01</leafValues></_>
        <_>
          <internalNodes>
            0 -1 717 1.4849085360765457e-02</internalNodes>
          <leafValues>
            -4.2854394763708115e-02 3.1743198633193970e-01</leafValues></_>
        <_>
          <internalNodes>
            0 -1 849 4.5616278657689691e-04</internalNodes>
          <leafValues>
            7.6184235513210297e-02 -1.6673047840595245e-01</leafValues></_>
        <_>
          <internalNodes>
            0 -1 832 1.3550987467169762e-02</internalNodes>
          <leafValues>
            -1.8102357164025307e-02 8.8960880041122437e-01</leafValues></_>
        <_>
          <internalNodes>
            0 -1 533 1.0889460146427155e-01</internalNodes>
          <leafValues>
            -8.7421825155615807e-03 9.4322717189788818e-01</leafValues></_>
        <_>
          <internalNodes>
            0 -1 307 -5.8149721007794142e-04</internalNodes>
          <leafValues>
            1.1579769849777222e-01 -1.0460671037435532e-01</leafValues></_>
        <_>
          <internalNodes>
            0 -1 285 3.3153472468256950e-03</internalNodes>
          <leafValues>
            -1.0287205874919891e-01 1.7200458049774170e-01</leafValues></_>
        <_>
          <internalNodes>
            0 -1 22 -4.3100975453853607e-03</internalNodes>
          <leafValues>
            -2.5803551077842712e-01 4.4676542282104492e-02</leafValues></_>
        <_>
          <internalNodes>
            0 -1 311 4.7662099823355675e-03</internalNodes>
          <leafValues>
            -2.9716139659285545e-02 4.4329702854156494e-01</leafValues></_>
        <_>
          <internalNodes>
            0 -1 696 -8.3197308704257011e-03</internalNodes>
          <leafValues>
            5.4448384791612625e-02 -2.3479558527469635e-01</leafValues></_>
        <_>
          <internalNodes>
            0 -1 609 -4.3674565851688385e-02</internalNodes>
          <leafValues>
            4.2606103420257568e-01 -3.0180694535374641e-02</leafValues></_>
        <_>
          <internalNodes>
            0 -1 518 7.2833627928048372e-04</internalNodes>
          <leafValues>
            -6.5495647490024567e-02 1.8204608559608459e-01</leafValues></_>
        <_>
          <internalNodes>
            0 -1 90 -1.0526594705879688e-03</internalNodes>
          <leafValues>
            -2.3993547260761261e-01 5.1056936383247375e-02</leafValues></_>
        <_>
          <internalNodes>
            0 -1 495 -4.1416987776756287e-02</internalNodes>
          <leafValues>
            -5.7497864961624146e-01 1.9387630745768547e-02</leafValues></_>
        <_>
          <internalNodes>
            0 -1 606 -2.8232399374246597e-02</internalNodes>
          <leafValues>
            4.7391575574874878e-01 -2.9421433806419373e-02</leafValues></_>
        <_>
          <internalNodes>
            0 -1 841 -1.1674720793962479e-02</internalNodes>
          <leafValues>
            -2.1406574547290802e-01 5.9804148972034454e-02</leafValues></_>
        <_>
          <internalNodes>
            0 -1 722 -3.9161361753940582e-02</internalNodes>
          <leafValues>
            3.9256298542022705e-01 -3.5174049437046051e-02</leafValues></_>
        <_>
          <internalNodes>
            0 -1 615 -4.5134038664400578e-03</internalNodes>
          <leafValues>
            1.0367807745933533e-01 -1.1931684613227844e-01</leafValues></_>
        <_>
          <internalNodes>
            0 -1 660 -3.3278311602771282e-03</internalNodes>
          <leafValues>
            1.6278977692127228e-01 -8.5725210607051849e-02</leafValues></_>
        <_>
          <internalNodes>
            0 -1 45 -7.2268079966306686e-03</internalNodes>
          <leafValues>
            1.5825581550598145e-01 -8.6955532431602478e-02</leafValues></_>
        <_>
          <internalNodes>
            0 -1 159 -4.4255919754505157e-02</internalNodes>
          <leafValues>
            -5.1301664113998413e-01 2.6155471801757813e-02</leafValues></_>
        <_>
          <internalNodes>
            0 -1 768 -3.9103641174733639e-03</internalNodes>
          <leafValues>
            1.9102042913436890e-01 -6.4558640122413635e-02</leafValues></_>
        <_>
          <internalNodes>
            0 -1 710 -8.5103407502174377e-02</internalNodes>
          <leafValues>
            -5.7233649492263794e-01 2.6155471801757813e-02</leafValues></_>
        <_>
          <internalNodes>
            0 -1 375 -1.5076369047164917e-02</internalNodes>
          <leafValues>
            7.9065412282943726e-02 -1.5236802399158478e-01</leafValues></_>
        <_>
          <internalNodes>
            0 -1 126 -2.4990890175104141e-02</internalNodes>
          <leafValues>
            4.0919524431228638e-01 -3.3035889267921448e-02</leafValues></_>
        <_>
          <internalNodes>
            0 -1 513 1.0586686432361603e-01</internalNodes>
          <leafValues>
            -3.2194532454013824e-02 4.1734063625335693e-01</leafValues></_>
        <_>
          <internalNodes>
            0 -1 219 1.2121736072003841e-03</internalNodes>
          <leafValues>
            7.1218557655811310e-02 -1.7882642149925232e-01</leafValues></_>
        <_>
          <internalNodes>
            0 -1 288 2.6157251000404358e-01</internalNodes>
          <leafValues>
            2.7761550620198250e-02 -4.4082513451576233e-01</leafValues></_>
        <_>
          <internalNodes>
            0 -1 619 2.7573825791478157e-03</internalNodes>
          <leafValues>
            -7.5773365795612335e-02 1.7778767645359039e-01</leafValues></_>
        <_>
          <internalNodes>
            0 -1 541 -3.8731622043997049e-04</internalNodes>
          <leafValues>
            -2.6918292045593262e-01 5.1528848707675934e-02</leafValues></_>
        <_>
          <internalNodes>
            0 -1 503 -1.3701649382710457e-02</internalNodes>
          <leafValues>
            -3.1030097603797913e-01 3.9160493761301041e-02</leafValues></_>
        <_>
          <internalNodes>
            0 -1 811 3.9940727874636650e-03</internalNodes>
          <leafValues>
            7.3722541332244873e-02 -1.8664678931236267e-01</leafValues></_>
        <_>
          <internalNodes>
            0 -1 618 6.6968295723199844e-03</internalNodes>
          <leafValues>
            -6.6283211112022400e-02 2.1818211674690247e-01</leafValues></_>
        <_>
          <internalNodes>
            0 -1 395 -3.9305997779592872e-04</internalNodes>
          <leafValues>
            1.5782734751701355e-01 -9.6562117338180542e-02</leafValues></_>
        <_>
          <internalNodes>
            0 -1 62 7.1356475353240967e-02</internalNodes>
          <leafValues>
            -2.5568297505378723e-01 5.5978365242481232e-02</leafValues></_>
        <_>
          <internalNodes>
            0 -1 488 -1.8487358465790749e-03</internalNodes>
          <leafValues>
            2.3586931824684143e-01 -6.3505657017230988e-02</leafValues></_>
        <_>
          <internalNodes>
            0 -1 396 -2.7383156120777130e-02</internalNodes>
          <leafValues>
            -3.8855046033859253e-01 3.9034225046634674e-02</leafValues></_>
        <_>
          <internalNodes>
            0 -1 822 1.0953437304124236e-03</internalNodes>
          <leafValues>
            8.1425547599792480e-02 -1.5782363712787628e-01</leafValues></_></weakClassifiers></_>
    <!-- stage 6 -->
    <_>
      <maxWeakCount>100</maxWeakCount>
      <stageThreshold>-1.8201118707656860e+00</stageThreshold>
      <weakClassifiers>
        <_>
          <internalNodes>
            0 -1 747 5.7344973087310791e-02</internalNodes>
          <leafValues>
            -5.3327834606170654e-01 2.2283609211444855e-01</leafValues></_>
        <_>
          <internalNodes>
            0 -1 383 4.5768089592456818e-02</internalNodes>
          <leafValues>
            -1.1266196519136429e-01 5.4421484470367432e-01</leafValues></_>
        <_>
          <internalNodes>
            0 -1 309 5.8233942836523056e-03</internalNodes>
          <leafValues>
            -9.1787867248058319e-02 3.0601072311401367e-01</leafValues></_>
        <_>
          <internalNodes>
            0 -1 600 -6.4313452458009124e-04</internalNodes>
          <leafValues>
            -3.5250663757324219e-01 7.7037297189235687e-02</leafValues></_>
        <_>
          <internalNodes>
            0 -1 600 2.6855940814130008e-04</internalNodes>
          <leafValues>
            1.8098396062850952e-01 -1.8521189689636230e-01</leafValues></_>
        <_>
          <internalNodes>
            0 -1 817 -4.2438987642526627e-02</internalNodes>
          <leafValues>
            5.3320759534835815e-01 -9.5833189785480499e-02</leafValues></_>
        <_>
          <internalNodes>
            0 -1 636 -2.0573693327605724e-03</internalNodes>
          <leafValues>
            2.8753057122230530e-01 -6.2281671911478043e-02</leafValues></_>
        <_>
          <internalNodes>
            0 -1 604 7.4330903589725494e-03</internalNodes>
          <leafValues>
            -7.6247617602348328e-02 4.2707139253616333e-01</leafValues></_>
        <_>
          <internalNodes>
            0 -1 425 -3.3712892327457666e-03</internalNodes>
          <leafValues>
            2.3274526000022888e-01 -9.2623971402645111e-02</leafValues></_>
        <_>
          <internalNodes>
            0 -1 728 -3.7122340872883797e-03</internalNodes>
          <leafValues>
            5.0596877932548523e-02 -3.4186494350433350e-01</leafValues></_>
        <_>
          <internalNodes>
            0 -1 762 2.0551462657749653e-03</internalNodes>
          <leafValues>
            -7.1989014744758606e-02 2.6953685283660889e-01</leafValues></_>
        <_>
          <internalNodes>
            0 -1 516 7.2613083757460117e-03</internalNodes>
          <leafValues>
            -9.4552874565124512e-02 2.9146233201026917e-01</leafValues></_>
        <_>
          <internalNodes>
            0 -1 437 -1.2778744101524353e-02</internalNodes>
          <leafValues>
            6.9028146564960480e-02 -4.2189747095108032e-01</leafValues></_>
        <_>
          <internalNodes>
            0 -1 271 -1.7546243965625763e-02</internalNodes>
          <leafValues>
            2.8391104936599731e-01 -8.4744155406951904e-02</leafValues></_>
        <_>
          <internalNodes>
            0 -1 133 3.2076433300971985e-01</internalNodes>
          <leafValues>
            5.2228800952434540e-02 -6.0529369115829468e-01</leafValues></_>
        <_>
          <internalNodes>
            0 -1 772 5.9824146330356598e-02</internalNodes>
          <leafValues>
            -8.5492521524429321e-02 4.1638767719268799e-01</leafValues></_>
        <_>
          <internalNodes>
            0 -1 419 -1.3194473460316658e-02</internalNodes>
          <leafValues>
            4.0761566162109375e-01 -3.0468333512544632e-02</leafValues></_>
        <_>
          <internalNodes>
            0 -1 143 1.1590149998664856e-01</internalNodes>
          <leafValues>
            -2.3892380297183990e-01 9.6572600305080414e-02</leafValues></_>
        <_>
          <internalNodes>
            0 -1 189 2.2894121706485748e-01</internalNodes>
          <leafValues>
            4.8517566174268723e-02 -3.6109089851379395e-01</leafValues></_>
        <_>
          <internalNodes>
            0 -1 671 2.6640489697456360e-02</internalNodes>
          <leafValues>
            -3.7818904966115952e-02 5.2012300491333008e-01</leafValues></_>
        <_>
          <internalNodes>
            0 -1 726 -7.7560525387525558e-03</internalNodes>
          <leafValues>
            3.3407390117645264e-01 -5.1640603691339493e-02</leafValues></_>
        <_>
          <internalNodes>
            0 -1 692 6.6368927946314216e-04</internalNodes>
