<?xml version="1.0"?>
<opencv_storage>
<stage8>
  <maxWeakCount>32</maxWeakCount>
  <stageThreshold>-9.8282277584075928e-01</stageThreshold>
  <weakClassifiers>
    <_>
      <internalNodes>
        0 -1 5565 -1.0714966803789139e-02</internalNodes>
      <leafValues>
        3.8375350832939148e-01 -2.3354123532772064e-01</leafValues></_>
    <_>
      <internalNodes>
        0 -1 70477 7.5472490862011909e-03</internalNodes>
      <leafValues>
        -5.1056135445833206e-02 8.9876306056976318e-01</leafValues></_>
    <_>
      <internalNodes>
        0 -1 46163 9.9877342581748962e-02</internalNodes>
      <leafValues>
        -1.0684716701507568e-01 4.9404200911521912e-01</leafValues></_>
    <_>
      <internalNodes>
        0 -1 56151 3.9830761961638927e-03</internalNodes>
      <leafValues>
        -1.6276542842388153e-01 3.2919016480445862e-01</leafValues></_>
    <_>
      <internalNodes>
        0 -1 70191 -5.6100748479366302e-03</internalNodes>
      <leafValues>
        3.7569627165794373e-01 -1.3596050441265106e-01</leafValues></_>
    <_>
      <internalNodes>
        0 -1 54187 1.3411963358521461e-02</internalNodes>
      <leafValues>
        1.1462449282407761e-01 -4.8938667774200439e-01</leafValues></_>
    <_>
      <internalNodes>
        0 -1 72358 4.6409659087657928e-02</internalNodes>
      <leafValues>
        -2.8578164055943489e-02 9.2283165454864502e-01</leafValues></_>
    <_>
      <internalNodes>
        0 -1 62400 -1.0509158018976450e-03</internalNodes>
      <leafValues>
        -2.5236707925796509e-01 1.7937289178371429e-01</leafValues></_>
    <_>
      <internalNodes>
        0 -1 38959 1.0399918071925640e-02</internalNodes>
      <leafValues>
        -2.7899241074919701e-02 9.3813860416412354e-01</leafValues></_>
    <_>
      <internalNodes>
        0 -1 740 3.1255173962563276e-04</internalNodes>
      <leafValues>
        1.5006181597709656e-01 -3.0180296301841736e-01</leafValues></_>
    <_>
      <internalNodes>
        0 -1 37072 5.3145969286561012e-03</internalNodes>
      <leafValues>
        -6.2192391604185104e-02 7.0132464170455933e-01</leafValues></_>
    <_>
      <internalNodes>
        0 -1 24272 6.5028446260839701e-04</internalNodes>
      <leafValues>
        -2.0018875598907471e-01 2.1868011355400085e-01</leafValues></_>
    <_>
      <internalNodes>
        0 -1 32486 -1.5769255161285400e-01</internalNodes>
      <leafValues>
        1. -3.3105924725532532e-02</leafValues></_>
    <_>
      <internalNodes>
        0 -1 55374 1.5047648921608925e-03</internalNodes>
      <leafValues>
        -4.3345671147108078e-02 9.0153688192367554e-01</leafValues></_>
    <_>
      <internalNodes>
        0 -1 71045 -1.9919505575671792e-04</internalNodes>
      <leafValues>
        2.8788796067237854e-01 -1.4838445186614990e-01</leafValues></_>
    <_>
      <internalNodes>
        0 -1 57316 -4.9035977572202682e-03</internalNodes>
      <leafValues>
        4.2835262417793274e-01 -1.1662127077579498e-01</leafValues></_>
    <_>
      <internalNodes>
        0 -1 12266 -3.0268944101408124e-04</internalNodes>
      <leafValues>
        -3.9522692561149597e-01 1.4965283870697021e-01</leafValues></_>
    <_>
      <internalNodes>
        0 -1 70335 -1.0206068865954876e-02</internalNodes>
      <leafValues>
        7.9981458187103271e-01 -7.7714845538139343e-02</leafValues></_>
    <_>
      <internalNodes>
        0 -1 5097 -4.6097696758806705e-03</internalNodes>
      <leafValues>
        2.8789034485816956e-01 -1.4742463827133179e-01</leafValues></_>
    <_>
      <internalNodes>
        0 -1 4638 -3.1598601490259171e-03</internalNodes>
      <leafValues>
        4.0105405449867249e-01 -1.8688756227493286e-01</leafValues></_>
    <_>
      <internalNodes>
        0 -1 26980 3.4331478178501129e-02</internalNodes>
      <leafValues>
        1.1121270805597305e-01 -4.5386916399002075e-01</leafValues></_>
    <_>
      <internalNodes>
        0 -1 32593 -1.6244250535964966e-01</internalNodes>
      <leafValues>
        -3.8543277978897095e-01 1.2647397816181183e-01</leafValues></_>
    <_>
      <internalNodes>
        0 -1 72893 -2.7454379945993423e-02</internalNodes>
      <leafValues>
        9.3359827995300293e-01 -5.7358890771865845e-02</leafValues></_>
    <_>
      <internalNodes>
        0 -1 37452 -5.1684150093933567e-05</internalNodes>
      <leafValues>
        -2.2474485635757446e-01 2.3007474839687347e-01</leafValues></_>
    <_>
      <internalNodes>
        0 -1 6705 3.0966685153543949e-03</internalNodes>
      <leafValues>
        1.5388682484626770e-01 -2.9644578695297241e-01</leafValues></_>
    <_>
      <internalNodes>
        0 -1 19222 -2.9696244746446609e-03</internalNodes>
      <leafValues>
        -4.7939366102218628e-01 1.1972031742334366e-01</leafValues></_>
    <_>
      <internalNodes>
        0 -1 54194 -3.7141065695323050e-04</internalNodes>
      <leafValues>
        2.9143017530441284e-01 -1.6796876490116119e-01</leafValues></_>
    <_>
      <internalNodes>
        0 -1 49544 2.4725694674998522e-03</internalNodes>
      <leafValues>
        -7.7809132635593414e-02 5.7637476921081543e-01</leafValues></_>
    <_>
      <internalNodes>
        0 -1 62055 2.3180106654763222e-03</internalNodes>
      <leafValues>
        6.9461740553379059e-02 -7.5438785552978516e-01</leafValues></_>
    <_>
      <internalNodes>
        0 -1 29451 2.3341043852269650e-03</internalNodes>
      <leafValues>
        -1.7894056439399719e-01 2.8444048762321472e-01</leafValues></_>
    <_>
      <internalNodes>
        0 -1 67535 -3.9993980899453163e-03</internalNodes>
      <leafValues>
        4.1927739977836609e-01 -1.2504127621650696e-01</leafValues></_>
    <_>
      <internalNodes>
        0 -1 21883 -3.7012577522546053e-03</internalNodes>
      <leafValues>
        -4.0847480297088623e-01 1.1544556915760040e-01</leafValues></_></weakClassifiers></stage8>
</opencv_storage>
