<?xml version="1.0"?>
<opencv_storage>
<stage2>
  <maxWeakCount>33</maxWeakCount>
  <stageThreshold>-1.1137948036193848e+00</stageThreshold>
  <weakClassifiers>
    <_>
      <internalNodes>
        0 -1 42266 3.9756394922733307e-02</internalNodes>
      <leafValues>
        -2.3937962949275970e-01 4.8895898461341858e-01</leafValues></_>
    <_>
      <internalNodes>
        0 -1 8097 -2.3496162891387939e-01</internalNodes>
      <leafValues>
        -8.2000279426574707e-01 7.6615087687969208e-02</leafValues></_>
    <_>
      <internalNodes>
        0 -1 14290 -1.8064139410853386e-02</internalNodes>
      <leafValues>
        -3.5261586308479309e-01 1.7504923045635223e-01</leafValues></_>
    <_>
      <internalNodes>
        0 -1 43766 -4.6876564621925354e-02</internalNodes>
      <leafValues>
        1.0136991739273071e-01 -4.9372851848602295e-01</leafValues></_>
    <_>
      <internalNodes>
        0 -1 34673 3.5348060727119446e-01</internalNodes>
      <leafValues>
        5.5190928280353546e-02 -6.5256792306900024e-01</leafValues></_>
    <_>
      <internalNodes>
        0 -1 8668 2.9450151324272156e-01</internalNodes>
      <leafValues>
        7.4683390557765961e-02 -7.0806950330734253e-01</leafValues></_>
    <_>
      <internalNodes>
        0 -1 56108 3.1335122883319855e-02</internalNodes>
      <leafValues>
        -7.7641919255256653e-02 6.0104447603225708e-01</leafValues></_>
    <_>
      <internalNodes>
        0 -1 70070 3.4396715462207794e-02</internalNodes>
      <leafValues>
        -8.6206376552581787e-02 5.3643691539764404e-01</leafValues></_>
    <_>
      <internalNodes>
        0 -1 54079 -1.2311636470258236e-02</internalNodes>
      <leafValues>
        4.1758739948272705e-01 -9.9906541407108307e-02</leafValues></_>
    <_>
      <internalNodes>
        0 -1 53908 3.0885906890034676e-02</internalNodes>
      <leafValues>
        -8.6759410798549652e-02 5.1049202680587769e-01</leafValues></_>
    <_>
      <internalNodes>
        0 -1 72095 -4.3653942644596100e-02</internalNodes>
      <leafValues>
        7.1808755397796631e-01 -5.5018290877342224e-02</leafValues></_>
    <_>
      <internalNodes>
        0 -1 5012 4.1260127909481525e-03</internalNodes>
      <leafValues>
        -3.5042232275009155e-01 1.2870188057422638e-01</leafValues></_>
    <_>
      <internalNodes>
        0 -1 15334 -7.3668248951435089e-03</internalNodes>
      <leafValues>
        -5.4228329658508301e-01 7.9811312258243561e-02</leafValues></_>
    <_>
      <internalNodes>
        0 -1 37121 -1.3549225404858589e-02</internalNodes>
      <leafValues>
        4.9754041433334351e-01 -1.0700460523366928e-01</leafValues></_>
    <_>
      <internalNodes>
        0 -1 40246 1.2140227854251862e-01</internalNodes>
      <leafValues>
        1.3095636665821075e-01 -3.7497764825820923e-01</leafValues></_>
    <_>
      <internalNodes>
        0 -1 20088 -6.9860572693869472e-04</internalNodes>
      <leafValues>
        1.6557185351848602e-01 -2.3907056450843811e-01</leafValues></_>
    <_>
      <internalNodes>
        0 -1 15318 1.4878787100315094e-02</internalNodes>
      <leafValues>
        5.8747421950101852e-02 -8.4624320268630981e-01</leafValues></_>
    <_>
      <internalNodes>
        0 -1 38311 1.1556815356016159e-02</internalNodes>
      <leafValues>
        -9.6623145043849945e-02 4.7028920054435730e-01</leafValues></_>
    <_>
      <internalNodes>
        0 -1 30826 8.8460305705666542e-03</internalNodes>
      <leafValues>
        -1.3272044062614441e-01 2.8798297047615051e-01</leafValues></_>
    <_>
      <internalNodes>
        0 -1 68435 1.5216773608699441e-03</internalNodes>
      <leafValues>
        8.7940126657485962e-02 -4.5518261194229126e-01</leafValues></_>
    <_>
      <internalNodes>
        0 -1 41812 -1.7148688435554504e-02</internalNodes>
      <leafValues>
        4.5297196507453918e-01 -9.7915582358837128e-02</leafValues></_>
    <_>
      <internalNodes>
        0 -1 37080 1.4361713081598282e-02</internalNodes>
      <leafValues>
        -1.1038204282522202e-01 3.5388541221618652e-01</leafValues></_>
    <_>
      <internalNodes>
        0 -1 8841 4.9197244644165039e-01</internalNodes>
      <leafValues>
        5.7162012904882431e-02 -6.8929177522659302e-01</leafValues></_>
    <_>
      <internalNodes>
        0 -1 77386 2.1515116095542908e-03</internalNodes>
      <leafValues>
        1.0291868448257446e-01 -3.8486102223396301e-01</leafValues></_>
    <_>
      <internalNodes>
        0 -1 54826 -2.0632330328226089e-02</internalNodes>
      <leafValues>
        -4.1870003938674927e-01 7.9602815210819244e-02</leafValues></_>
    <_>
      <internalNodes>
        0 -1 25011 -1.5496577136218548e-02</internalNodes>
      <leafValues>
        3.4905070066452026e-01 -1.0522139817476273e-01</leafValues></_>
    <_>
      <internalNodes>
        0 -1 26681 -1.5123317018151283e-02</internalNodes>
      <leafValues>
        1.1391627788543701e-01 -3.1805828213691711e-01</leafValues></_>
    <_>
      <internalNodes>
        0 -1 22674 6.3936170190572739e-03</internalNodes>
      <leafValues>
        5.9259638190269470e-02 -5.5722439289093018e-01</leafValues></_>
    <_>
      <internalNodes>
        0 -1 30129 -2.2270441055297852e-01</internalNodes>
      <leafValues>
        -8.9017009735107422e-01 3.3412776887416840e-02</leafValues></_>
    <_>
      <internalNodes>
        0 -1 60120 2.1250870078802109e-02</internalNodes>
      <leafValues>
        -8.0492451786994934e-02 5.1855182647705078e-01</leafValues></_>
    <_>
      <internalNodes>
        0 -1 23758 1.4376139640808105e-01</internalNodes>
      <leafValues>
        -2.9777014255523682e-01 1.3487410545349121e-01</leafValues></_>
    <_>
      <internalNodes>
        0 -1 14448 4.6159133315086365e-02</internalNodes>
      <leafValues>
        3.6631967872381210e-02 -9.0683043003082275e-01</leafValues></_>
    <_>
      <internalNodes>
        0 -1 50899 -2.4018874391913414e-03</internalNodes>
      <leafValues>
        3.0920800566673279e-01 -1.3591834902763367e-01</leafValues></_></weakClassifiers></stage2>
</opencv_storage>
