<?xml version="1.0"?>
<opencv_storage>
<stage3>
  <maxWeakCount>25</maxWeakCount>
  <stageThreshold>-1.0525451898574829e+00</stageThreshold>
  <weakClassifiers>
    <_>
      <internalNodes>
        0 -1 25737 1.0040958225727081e-01</internalNodes>
      <leafValues>
        -2.6541927456855774e-01 5.1260507106781006e-01</leafValues></_>
    <_>
      <internalNodes>
        0 -1 30496 1.1555723100900650e-01</internalNodes>
      <leafValues>
        -4.0527427196502686e-01 1.8213844299316406e-01</leafValues></_>
    <_>
      <internalNodes>
        0 -1 35696 1.9245804846286774e-01</internalNodes>
      <leafValues>
        -4.0759271383285522e-01 1.5495668351650238e-01</leafValues></_>
    <_>
      <internalNodes>
        0 -1 5325 -5.0699552521109581e-03</internalNodes>
      <leafValues>
        -5.0539880990982056e-01 1.4430098235607147e-01</leafValues></_>
    <_>
      <internalNodes>
        0 -1 39854 8.8620595633983612e-03</internalNodes>
      <leafValues>
        1.0458970069885254e-01 -4.2503935098648071e-01</leafValues></_>
    <_>
      <internalNodes>
        0 -1 69854 -3.6865368485450745e-02</internalNodes>
      <leafValues>
        6.2925589084625244e-01 -1.1975115537643433e-01</leafValues></_>
    <_>
      <internalNodes>
        0 -1 70324 -1.0233411565423012e-02</internalNodes>
      <leafValues>
        -5.1828241348266602e-01 1.3827562332153320e-01</leafValues></_>
    <_>
      <internalNodes>
        0 -1 70099 5.8296222239732742e-02</internalNodes>
      <leafValues>
        -6.3328146934509277e-02 8.0107146501541138e-01</leafValues></_>
    <_>
      <internalNodes>
        0 -1 28100 -8.9072650298476219e-03</internalNodes>
      <leafValues>
        -6.9015192985534668e-01 5.1635734736919403e-02</leafValues></_>
    <_>
      <internalNodes>
        0 -1 7688 -5.0585558637976646e-03</internalNodes>
      <leafValues>
        -5.0896316766738892e-01 7.1648441255092621e-02</leafValues></_>
    <_>
      <internalNodes>
        0 -1 47643 1.7720412462949753e-02</internalNodes>
      <leafValues>
        -4.2026273906230927e-02 7.7315062284469604e-01</leafValues></_>
    <_>
      <internalNodes>
        0 -1 41808 1.4317566528916359e-02</internalNodes>
      <leafValues>
        -8.6178228259086609e-02 4.7010090947151184e-01</leafValues></_>
    <_>
      <internalNodes>
        0 -1 71 8.5058938711881638e-03</internalNodes>
      <leafValues>
        6.9938726723194122e-02 -5.2765333652496338e-01</leafValues></_>
    <_>
      <internalNodes>
        0 -1 44444 8.4827832877635956e-02</internalNodes>
      <leafValues>
        5.2076138556003571e-02 -8.1050974130630493e-01</leafValues></_>
    <_>
      <internalNodes>
        0 -1 7555 8.3977426402270794e-04</internalNodes>
      <leafValues>
        1.1501996219158173e-01 -2.9356411099433899e-01</leafValues></_>
    <_>
      <internalNodes>
        0 -1 53214 1.0826423764228821e-02</internalNodes>
      <leafValues>
        -7.2235956788063049e-02 5.4420691728591919e-01</leafValues></_>
    <_>
      <internalNodes>
        0 -1 12336 1.4034673571586609e-02</internalNodes>
      <leafValues>
        -4.0233689546585083e-01 1.0359059274196625e-01</leafValues></_>
    <_>
      <internalNodes>
        0 -1 31269 1.1400200426578522e-02</internalNodes>
      <leafValues>
        -1.3687656819820404e-01 2.9967418313026428e-01</leafValues></_>
    <_>
      <internalNodes>
        0 -1 7656 -6.7249760031700134e-03</internalNodes>
      <leafValues>
        -4.8807635903358459e-01 7.5685143470764160e-02</leafValues></_>
    <_>
      <internalNodes>
        0 -1 41048 -9.8557263612747192e-02</internalNodes>
      <leafValues>
        6.4989268779754639e-01 -5.4593272507190704e-02</leafValues></_>
    <_>
      <internalNodes>
        0 -1 76370 5.3341351449489594e-03</internalNodes>
      <leafValues>
        6.7919470369815826e-02 -6.1489170789718628e-01</leafValues></_>
    <_>
      <internalNodes>
        0 -1 4106 -8.2294140011072159e-03</internalNodes>
      <leafValues>
        2.6857870817184448e-01 -1.2598732113838196e-01</leafValues></_>
    <_>
      <internalNodes>
        0 -1 25467 1.0702883824706078e-02</internalNodes>
      <leafValues>
        -1.1181785166263580e-01 3.4034585952758789e-01</leafValues></_>
    <_>
      <internalNodes>
        0 -1 75504 -6.8715093657374382e-03</internalNodes>
      <leafValues>
        -3.4542149305343628e-01 9.9711090326309204e-02</leafValues></_>
    <_>
      <internalNodes>
        0 -1 73535 2.7165687642991543e-03</internalNodes>
      <leafValues>
        7.5651310384273529e-02 -4.4137904047966003e-01</leafValues></_></weakClassifiers></stage3>
</opencv_storage>
