<?xml version="1.0"?>
<opencv_storage>
<stage6>
  <maxWeakCount>100</maxWeakCount>
  <stageThreshold>-8.6598145961761475e-01</stageThreshold>
  <weakClassifiers>
    <_>
      <internalNodes>
        0 -1 31717 3.4803107380867004e-02</internalNodes>
      <leafValues>
        3.0893042683601379e-01 7.0557492971420288e-01</leafValues></_>
    <_>
      <internalNodes>
        0 -1 55834 1.3749176636338234e-02</internalNodes>
      <leafValues>
        -1.0682409629225731e-02 5.5565935373306274e-01</leafValues></_>
    <_>
      <internalNodes>
        0 -1 69985 1.4189561828970909e-02</internalNodes>
      <leafValues>
        -1.6859540343284607e-01 2.3930712044239044e-01</leafValues></_>
    <_>
      <internalNodes>
        0 -1 75013 -5.2383705973625183e-02</internalNodes>
      <leafValues>
        6.5763521194458008e-01 -1.1119861155748367e-03</leafValues></_>
    <_>
      <internalNodes>
        0 -1 64897 2.8854882111772895e-04</internalNodes>
      <leafValues>
        4.7262359410524368e-02 -4.9453690648078918e-01</leafValues></_>
    <_>
      <internalNodes>
        0 -1 28728 4.8363789916038513e-02</internalNodes>
      <leafValues>
        -5.4803919047117233e-02 4.2516502737998962e-01</leafValues></_>
    <_>
      <internalNodes>
        0 -1 42951 -7.3226513341069221e-03</internalNodes>
      <leafValues>
        3.6444815993309021e-01 -9.2838160693645477e-02</leafValues></_>
    <_>
      <internalNodes>
        0 -1 38470 2.7505129575729370e-02</internalNodes>
      <leafValues>
        -7.6412647962570190e-02 2.6855564117431641e-01</leafValues></_>
    <_>
      <internalNodes>
        0 -1 37990 1.8178813159465790e-01</internalNodes>
      <leafValues>
        -1.0693971067667007e-01 2.0969629287719727e-01</leafValues></_>
    <_>
      <internalNodes>
        0 -1 23567 8.5235564038157463e-03</internalNodes>
      <leafValues>
        -1.1650994420051575e-01 1.8226692080497742e-01</leafValues></_>
    <_>
      <internalNodes>
        0 -1 70070 4.0948450565338135e-02</internalNodes>
      <leafValues>
        -4.1897028684616089e-02 5.3303265571594238e-01</leafValues></_>
    <_>
      <internalNodes>
        0 -1 3759 -1.3914617896080017e-01</internalNodes>
      <leafValues>
        -5.8802258968353271e-01 3.6384016275405884e-02</leafValues></_>
    <_>
      <internalNodes>
        0 -1 69895 -1.4267794322222471e-03</internalNodes>
      <leafValues>
        1.8910463154315948e-01 -1.0659960657358170e-01</leafValues></_>
    <_>
      <internalNodes>
        0 -1 51748 -6.9766171276569366e-02</internalNodes>
      <leafValues>
        5.2747565507888794e-01 -2.9638057574629784e-02</leafValues></_>
    <_>
      <internalNodes>
        0 -1 30498 1.2830010056495667e-01</internalNodes>
      <leafValues>
        -2.4875175952911377e-01 8.5473671555519104e-02</leafValues></_>
    <_>
      <internalNodes>
        0 -1 140 1.2253645807504654e-02</internalNodes>
      <leafValues>
        4.7547284513711929e-02 -3.1827530264854431e-01</leafValues></_>
    <_>
      <internalNodes>
        0 -1 40546 1.6286518424749374e-02</internalNodes>
      <leafValues>
        2.3158331215381622e-01 -7.1398943662643433e-02</leafValues></_>
    <_>
      <internalNodes>
        0 -1 35889 -1.6509532928466797e-02</internalNodes>
      <leafValues>
        3.1842601299285889e-01 -6.4110837876796722e-02</leafValues></_>
    <_>
      <internalNodes>
        0 -1 1904 -1.7106911540031433e-01</internalNodes>
      <leafValues>
        -6.0419088602066040e-01 3.4309461712837219e-02</leafValues></_>
    <_>
      <internalNodes>
        0 -1 31678 3.6014311015605927e-02</internalNodes>
      <leafValues>
        -4.8750597983598709e-02 4.2973998188972473e-01</leafValues></_>
    <_>
      <internalNodes>
        0 -1 38224 2.8863467276096344e-02</internalNodes>
      <leafValues>
        -2.0638681948184967e-01 9.2668026685714722e-02</leafValues></_>
    <_>
      <internalNodes>
        0 -1 57430 2.2169745061546564e-03</internalNodes>
      <leafValues>
        5.5198632180690765e-02 -3.3419233560562134e-01</leafValues></_>
    <_>
      <internalNodes>
        0 -1 3579 -4.1648436337709427e-02</internalNodes>
      <leafValues>
        5.4188805818557739e-01 -3.7992656230926514e-02</leafValues></_>
    <_>
      <internalNodes>
        0 -1 75164 2.3276859428733587e-03</internalNodes>
      <leafValues>
        5.5556003004312515e-02 -2.9524943232536316e-01</leafValues></_>
    <_>
      <internalNodes>
        0 -1 16959 1.9542457163333893e-01</internalNodes>
      <leafValues>
        4.8043217509984970e-02 -3.2526117563247681e-01</leafValues></_>
    <_>
      <internalNodes>
        0 -1 7444 -7.4880477041006088e-04</internalNodes>
      <leafValues>
        -2.3948334157466888e-01 6.2477298080921173e-02</leafValues></_>
    <_>
      <internalNodes>
        0 -1 53315 -3.9561558514833450e-03</internalNodes>
      <leafValues>
        2.1018224954605103e-01 -6.8970814347267151e-02</leafValues></_>
    <_>
      <internalNodes>
        0 -1 61904 1.4848789200186729e-02</internalNodes>
      <leafValues>
        6.4377248287200928e-02 -2.9559776186943054e-01</leafValues></_>
    <_>
      <internalNodes>
        0 -1 76917 -5.3901751525700092e-03</internalNodes>
      <leafValues>
        -4.6400800347328186e-01 3.0810626223683357e-02</leafValues></_>
    <_>
      <internalNodes>
        0 -1 4392 9.8156102467328310e-04</internalNodes>
      <leafValues>
        9.3901246786117554e-02 -1.6116626560688019e-01</leafValues></_>
    <_>
      <internalNodes>
        0 -1 49985 7.5839725323021412e-03</internalNodes>
      <leafValues>
        -5.8574743568897247e-02 2.6193761825561523e-01</leafValues></_>
    <_>
      <internalNodes>
        0 -1 15848 1.9347043335437775e-01</internalNodes>
      <leafValues>
        2.5698419660329819e-02 -5.8376616239547729e-01</leafValues></_>
    <_>
      <internalNodes>
        0 -1 8354 1.4258575625717640e-02</internalNodes>
      <leafValues>
        2.4209057912230492e-02 -5.1325941085815430e-01</leafValues></_>
    <_>
      <internalNodes>
        0 -1 38335 1.8312707543373108e-02</internalNodes>
      <leafValues>
        -2.9000088572502136e-02 5.3136956691741943e-01</leafValues></_>
    <_>
      <internalNodes>
        0 -1 8737 -9.7866684198379517e-02</internalNodes>
      <leafValues>
        -6.1590248346328735e-01 2.5367714464664459e-02</leafValues></_>
    <_>
      <internalNodes>
        0 -1 48755 -8.7559195235371590e-03</internalNodes>
      <leafValues>
        7.0468950271606445e-01 -2.3179074749350548e-02</leafValues></_>
    <_>
      <internalNodes>
        0 -1 77767 -8.3639286458492279e-04</internalNodes>
      <leafValues>
        -1.6777475178241730e-01 8.6639270186424255e-02</leafValues></_>
    <_>
      <internalNodes>
        0 -1 803 -4.3266741558909416e-03</internalNodes>
      <leafValues>
        -6.0555738210678101e-01 2.2978784516453743e-02</leafValues></_>
    <_>
      <internalNodes>
        0 -1 16481 3.1596669554710388e-01</internalNodes>
      <leafValues>
        3.5214710980653763e-02 -3.6744415760040283e-01</leafValues></_>
    <_>
      <internalNodes>
        0 -1 53902 1.9074171781539917e-02</internalNodes>
      <leafValues>
        -4.2001262307167053e-02 3.6140608787536621e-01</leafValues></_>
    <_>
      <internalNodes>
        0 -1 64643 -1.2721309065818787e-01</internalNodes>
      <leafValues>
        -5.6341350078582764e-01 3.0014995485544205e-02</leafValues></_>
    <_>
      <internalNodes>
        0 -1 30535 -1.3788098096847534e-01</internalNodes>
      <leafValues>
        -3.4573158621788025e-01 3.9998322725296021e-02</leafValues></_>
    <_>
      <internalNodes>
        0 -1 53347 1.1322593782097101e-03</internalNodes>
      <leafValues>
        9.0782038867473602e-02 -1.4833343029022217e-01</leafValues></_>
    <_>
      <internalNodes>
        0 -1 61283 -1.2395028024911880e-03</internalNodes>
      <leafValues>
        -2.8171759843826294e-01 7.4098192155361176e-02</leafValues></_>
    <_>
      <internalNodes>
        0 -1 50274 1.2522423267364502e-01</internalNodes>
      <leafValues>
        1.5552866272628307e-02 -8.1486564874649048e-01</leafValues></_>
    <_>
      <internalNodes>
        0 -1 7615 3.1152285635471344e-02</internalNodes>
      <leafValues>
        3.8087587803602219e-02 -3.4151911735534668e-01</leafValues></_>
    <_>
      <internalNodes>
        0 -1 14720 -1.6628459095954895e-02</internalNodes>
      <leafValues>
        -3.0910426378250122e-01 5.4355144500732422e-02</leafValues></_>
    <_>
      <internalNodes>
        0 -1 9242 1.9378140568733215e-01</internalNodes>
      <leafValues>
        -2.5257132947444916e-02 5.9865498542785645e-01</leafValues></_>
    <_>
      <internalNodes>
        0 -1 33444 -1.1759217886719853e-04</internalNodes>
      <leafValues>
        1.4737443625926971e-01 -1.0207019001245499e-01</leafValues></_>
    <_>
      <internalNodes>
        0 -1 52364 -1.4535104855895042e-03</internalNodes>
      <leafValues>
        2.0078837871551514e-01 -6.7669339478015900e-02</leafValues></_>
    <_>
      <internalNodes>
        0 -1 74414 8.7023861706256866e-03</internalNodes>
      <leafValues>
        -6.8019300699234009e-02 2.1080414950847626e-01</leafValues></_>
    <_>
      <internalNodes>
        0 -1 2182 -2.2043887525796890e-02</internalNodes>
      <leafValues>
        -4.7839528322219849e-01 2.8679536655545235e-02</leafValues></_>
    <_>
      <internalNodes>
        0 -1 48539 -1.0661479318514466e-03</internalNodes>
      <leafValues>
        -3.7380826473236084e-01 3.5076390951871872e-02</leafValues></_>
    <_>
      <internalNodes>
        0 -1 42551 9.9083334207534790e-03</internalNodes>
      <leafValues>
        -4.8533592373132706e-02 3.1989216804504395e-01</leafValues></_>
    <_>
      <internalNodes>
        0 -1 68400 -1.1064827442169189e-02</internalNodes>
      <leafValues>
        8.5388976335525513e-01 -1.5981191769242287e-02</leafValues></_>
    <_>
      <internalNodes>
        0 -1 78197 1.4205721672624350e-03</internalNodes>
      <leafValues>
        5.7213351130485535e-02 -2.8132241964340210e-01</leafValues></_>
    <_>
      <internalNodes>
        0 -1 18659 -2.3221388459205627e-02</internalNodes>
      <leafValues>
        2.9137709736824036e-01 -4.9736995249986649e-02</leafValues></_>
    <_>
      <internalNodes>
        0 -1 55843 2.5072293356060982e-02</internalNodes>
      <leafValues>
        -1.9463421776890755e-02 6.4449757337570190e-01</leafValues></_>
    <_>
      <internalNodes>
        0 -1 73575 -3.4574467688798904e-02</internalNodes>
      <leafValues>
        9.8172569274902344e-01 -9.8580690100789070e-03</leafValues></_>
    <_>
      <internalNodes>
        0 -1 5790 2.1360313985496759e-03</internalNodes>
      <leafValues>
        7.4890263378620148e-02 -1.8707455694675446e-01</leafValues></_>
    <_>
      <internalNodes>
        0 -1 77661 -8.6815166287124157e-04</internalNodes>
      <leafValues>
        -2.0294253528118134e-01 6.4907081425189972e-02</leafValues></_>
    <_>
      <internalNodes>
        0 -1 20341 9.3596556689590216e-04</internalNodes>
      <leafValues>
        1.0625469684600830e-01 -1.2057535350322723e-01</leafValues></_>
    <_>
      <internalNodes>
        0 -1 35751 2.0035354793071747e-01</internalNodes>
      <leafValues>
        4.0524929761886597e-02 -3.2655528187751770e-01</leafValues></_>
    <_>
      <internalNodes>
        0 -1 28163 -3.5655889660120010e-03</internalNodes>
      <leafValues>
        1.2825447320938110e-01 -1.0846500843763351e-01</leafValues></_>
    <_>
      <internalNodes>
        0 -1 55045 -9.2643136158585548e-03</internalNodes>
      <leafValues>
        2.5037851929664612e-01 -6.1355832964181900e-02</leafValues></_>
    <_>
      <internalNodes>
        0 -1 66820 7.1195079945027828e-03</internalNodes>
      <leafValues>
        -1.9634366035461426e-01 7.7985905110836029e-02</leafValues></_>
    <_>
      <internalNodes>
        0 -1 78378 -8.3823408931493759e-03</internalNodes>
      <leafValues>
        -1.9980725646018982e-01 7.6480008661746979e-02</leafValues></_>
    <_>
      <internalNodes>
        0 -1 78088 1.9664892926812172e-02</internalNodes>
      <leafValues>
        -2.0424546673893929e-02 7.6574259996414185e-01</leafValues></_>
    <_>
      <internalNodes>
        0 -1 52426 -7.6611516997218132e-03</internalNodes>
      <leafValues>
        3.2595288753509521e-01 -4.1752576828002930e-02</leafValues></_>
    <_>
      <internalNodes>
        0 -1 69517 2.9467862099409103e-02</internalNodes>
      <leafValues>
        -6.3825689256191254e-02 2.4276733398437500e-01</leafValues></_>
    <_>
      <internalNodes>
        0 -1 78294 1.3540759682655334e-03</internalNodes>
      <leafValues>
        6.9821603596210480e-02 -2.1864885091781616e-01</leafValues></_>
    <_>
      <internalNodes>
        0 -1 45585 -3.3608414232730865e-02</internalNodes>
      <leafValues>
        -3.9199349284172058e-01 3.6741666495800018e-02</leafValues></_>
    <_>
      <internalNodes>
        0 -1 43577 8.3562592044472694e-03</internalNodes>
      <leafValues>
        -2.2553091868758202e-02 6.6799092292785645e-01</leafValues></_>
    <_>
      <internalNodes>
        0 -1 45417 2.4114616215229034e-02</internalNodes>
      <leafValues>
        3.3961627632379532e-02 -4.3243786692619324e-01</leafValues></_>
    <_>
      <internalNodes>
        0 -1 43408 -1.6401673853397369e-01</internalNodes>
      <leafValues>
        -4.6510809659957886e-01 2.9219770804047585e-02</leafValues></_>
    <_>
      <internalNodes>
        0 -1 44259 -6.9264993071556091e-02</internalNodes>
      <leafValues>
        -1.9638197124004364e-01 6.4226381480693817e-02</leafValues></_>
    <_>
      <internalNodes>
        0 -1 53376 2.2703539580106735e-02</internalNodes>
      <leafValues>
        -7.6920181512832642e-02 1.7615410685539246e-01</leafValues></_>
    <_>
      <internalNodes>
        0 -1 57674 -2.0655345171689987e-02</internalNodes>
      <leafValues>
        3.3894166350364685e-01 -3.9635710418224335e-02</leafValues></_>
    <_>
      <internalNodes>
        0 -1 48319 2.7094991877675056e-02</internalNodes>
      <leafValues>
        -6.3457757234573364e-02 2.2953723371028900e-01</leafValues></_>
    <_>
      <internalNodes>
        0 -1 5120 5.9710353612899780e-02</internalNodes>
      <leafValues>
        -1.6890378668904305e-02 7.6553052663803101e-01</leafValues></_>
    <_>
      <internalNodes>
        0 -1 332 3.4460846334695816e-02</internalNodes>
      <leafValues>
        3.8023378700017929e-02 -4.1682574152946472e-01</leafValues></_>
    <_>
      <internalNodes>
        0 -1 20942 8.9240215718746185e-02</internalNodes>
      <leafValues>
        -2.7303069829940796e-02 4.7931712865829468e-01</leafValues></_>
    <_>
      <internalNodes>
        0 -1 9409 5.8724507689476013e-03</internalNodes>
      <leafValues>
        8.3774439990520477e-02 -1.6010400652885437e-01</leafValues></_>
    <_>
      <internalNodes>
        0 -1 18220 4.0094722062349319e-02</internalNodes>
      <leafValues>
        -6.0027025640010834e-02 2.3989114165306091e-01</leafValues></_>
    <_>
      <internalNodes>
        0 -1 32651 -1.5345938736572862e-03</internalNodes>
      <leafValues>
        1.2602962553501129e-01 -1.2165125459432602e-01</leafValues></_>
    <_>
      <internalNodes>
        0 -1 6668 -6.7487642168998718e-02</internalNodes>
      <leafValues>
        -3.0350470542907715e-01 4.8346959054470062e-02</leafValues></_>
    <_>
      <internalNodes>
        0 -1 70705 9.5290131866931915e-03</internalNodes>
      <leafValues>
        2.4147192016243935e-02 -5.2807480096817017e-01</leafValues></_>
    <_>
      <internalNodes>
        0 -1 58131 -1.1476278305053711e-03</internalNodes>
      <leafValues>
        1.3957168161869049e-01 -1.0571721941232681e-01</leafValues></_>
    <_>
      <internalNodes>
        0 -1 54103 8.4496632218360901e-02</internalNodes>
      <leafValues>
        -2.7891280129551888e-02 4.5648759603500366e-01</leafValues></_>
    <_>
      <internalNodes>
        0 -1 7456 -1.6172297764569521e-03</internalNodes>
      <leafValues>
        -2.1834975481033325e-01 6.2448181211948395e-02</leafValues></_>
    <_>
      <internalNodes>
        0 -1 44081 -1.5913084149360657e-02</internalNodes>
      <leafValues>
        7.5729209184646606e-01 -1.7841612920165062e-02</leafValues></_>
    <_>
      <internalNodes>
        0 -1 77211 7.0117705035954714e-04</internalNodes>
      <leafValues>
        9.0448267757892609e-02 -1.4873912930488586e-01</leafValues></_>
    <_>
      <internalNodes>
        0 -1 70024 9.5650292932987213e-03</internalNodes>
      <leafValues>
        -7.3929563164710999e-02 1.8996757268905640e-01</leafValues></_>
    <_>
      <internalNodes>
        0 -1 41561 6.5496265888214111e-02</internalNodes>
      <leafValues>
        4.7407075762748718e-02 -3.0693453550338745e-01</leafValues></_>
    <_>
      <internalNodes>
        0 -1 12533 -3.1684303283691406e-01</internalNodes>
      <leafValues>
        -7.4430954456329346e-01 1.6447288915514946e-02</leafValues></_>
    <_>
      <internalNodes>
        0 -1 49578 -8.1871211528778076e-02</internalNodes>
      <leafValues>
        -7.4896353483200073e-01 1.4000617899000645e-02</leafValues></_>
    <_>
      <internalNodes>
        0 -1 68079 3.7450209259986877e-02</internalNodes>
      <leafValues>
        -3.8544941693544388e-02 3.5507762432098389e-01</leafValues></_>
    <_>
      <internalNodes>
        0 -1 67628 9.5216676592826843e-02</internalNodes>
      <leafValues>
        2.9222350567579269e-02 -4.4053828716278076e-01</leafValues></_>
    <_>
      <internalNodes>
        0 -1 1165 8.3494119346141815e-02</internalNodes>
      <leafValues>
        -3.7390101701021194e-02 3.7714695930480957e-01</leafValues></_>
    <_>
      <internalNodes>
        0 -1 66811 5.4388586431741714e-03</internalNodes>
      <leafValues>
        -1.8968563526868820e-02 6.2744444608688354e-01</leafValues></_></weakClassifiers></stage6>
</opencv_storage>
