<?xml version="1.0"?>
<opencv_storage>
<stage3>
  <maxWeakCount>100</maxWeakCount>
  <stageThreshold>-1.0191627740859985e+00</stageThreshold>
  <weakClassifiers>
    <_>
      <internalNodes>
        0 -1 47176 7.4924677610397339e-02</internalNodes>
      <leafValues>
        2.9603315051645041e-03 4.8068824410438538e-01</leafValues></_>
    <_>
      <internalNodes>
        0 -1 59715 -6.9500585086643696e-03</internalNodes>
      <leafValues>
        3.2641571760177612e-01 -1.0471241921186447e-01</leafValues></_>
    <_>
      <internalNodes>
        0 -1 25553 5.1830913871526718e-02</internalNodes>
      <leafValues>
        -7.1182049810886383e-02 5.4160040616989136e-01</leafValues></_>
    <_>
      <internalNodes>
        0 -1 77529 -4.3298270553350449e-02</internalNodes>
      <leafValues>
        6.8507748842239380e-01 -6.0553397983312607e-02</leafValues></_>
    <_>
      <internalNodes>
        0 -1 36296 4.4586472213268280e-02</internalNodes>
      <leafValues>
        -7.7197276055812836e-02 5.1651537418365479e-01</leafValues></_>
    <_>
      <internalNodes>
        0 -1 19516 -3.3983342349529266e-02</internalNodes>
      <leafValues>
        3.4946411848068237e-01 -9.7930818796157837e-02</leafValues></_>
    <_>
      <internalNodes>
        0 -1 35828 2.3567125201225281e-02</internalNodes>
      <leafValues>
        -9.9062405526638031e-02 3.0224129557609558e-01</leafValues></_>
    <_>
      <internalNodes>
        0 -1 46141 3.9898812770843506e-02</internalNodes>
      <leafValues>
        -7.7325202524662018e-02 3.6800083518028259e-01</leafValues></_>
    <_>
      <internalNodes>
        0 -1 69926 -6.0049341991543770e-03</internalNodes>
      <leafValues>
        2.6446950435638428e-01 -1.2327829748392105e-01</leafValues></_>
    <_>
      <internalNodes>
        0 -1 60793 -1.1343853548169136e-03</internalNodes>
      <leafValues>
        -4.7783103585243225e-01 6.7021146416664124e-02</leafValues></_>
    <_>
      <internalNodes>
        0 -1 18076 7.2756618261337280e-02</internalNodes>
      <leafValues>
        -2.9902449250221252e-01 6.5031118690967560e-02</leafValues></_>
    <_>
      <internalNodes>
        0 -1 56641 -2.7202791534364223e-03</internalNodes>
      <leafValues>
        4.2075508832931519e-01 -5.4364323616027832e-02</leafValues></_>
    <_>
      <internalNodes>
        0 -1 61442 -7.0283969398587942e-04</internalNodes>
      <leafValues>
        -3.3508503437042236e-01 5.8147050440311432e-02</leafValues></_>
    <_>
      <internalNodes>
        0 -1 33239 4.0205843746662140e-02</internalNodes>
      <leafValues>
        -4.7984361648559570e-02 4.2463004589080811e-01</leafValues></_>
    <_>
      <internalNodes>
        0 -1 24176 -4.6384699642658234e-02</internalNodes>
      <leafValues>
        3.3718389272689819e-01 -5.6102644652128220e-02</leafValues></_>
    <_>
      <internalNodes>
        0 -1 15934 2.4470227956771851e-01</internalNodes>
      <leafValues>
        3.2110523432493210e-02 -6.9069814682006836e-01</leafValues></_>
    <_>
      <internalNodes>
        0 -1 56410 1.4845860190689564e-02</internalNodes>
      <leafValues>
        -7.2772718966007233e-02 2.6102995872497559e-01</leafValues></_>
    <_>
      <internalNodes>
        0 -1 70110 4.2858742177486420e-02</internalNodes>
      <leafValues>
        -5.2099488675594330e-02 4.1914746165275574e-01</leafValues></_>
    <_>
      <internalNodes>
        0 -1 67923 -1.3258315622806549e-01</internalNodes>
      <leafValues>
        2.8876838088035583e-01 -8.1624269485473633e-02</leafValues></_>
    <_>
      <internalNodes>
        0 -1 73426 1.3243402354419231e-02</internalNodes>
      <leafValues>
        5.4795056581497192e-02 -3.3906531333923340e-01</leafValues></_>
    <_>
      <internalNodes>
        0 -1 70484 1.9517427310347557e-02</internalNodes>
      <leafValues>
        -4.5222900807857513e-02 3.9803132414817810e-01</leafValues></_>
    <_>
      <internalNodes>
        0 -1 40467 3.3710625022649765e-02</internalNodes>
      <leafValues>
        -8.8155373930931091e-02 2.1736253798007965e-01</leafValues></_>
    <_>
      <internalNodes>
        0 -1 14499 6.3967872411012650e-03</internalNodes>
      <leafValues>
        5.7981360703706741e-02 -2.9169201850891113e-01</leafValues></_>
    <_>
      <internalNodes>
        0 -1 46875 -2.4753240868449211e-03</internalNodes>
      <leafValues>
        2.6334777474403381e-01 -5.9629045426845551e-02</leafValues></_>
    <_>
      <internalNodes>
        0 -1 54188 3.5581238567829132e-02</internalNodes>
      <leafValues>
        4.2414415627717972e-02 -4.0056371688842773e-01</leafValues></_>
    <_>
      <internalNodes>
        0 -1 64245 -4.0563814342021942e-02</internalNodes>
      <leafValues>
        4.1712456941604614e-01 -3.9456907659769058e-02</leafValues></_>
    <_>
      <internalNodes>
        0 -1 37121 1.0224247351288795e-02</internalNodes>
      <leafValues>
        -7.9295210540294647e-02 2.0991551876068115e-01</leafValues></_>
    <_>
      <internalNodes>
        0 -1 19165 -3.8848288822919130e-03</internalNodes>
      <leafValues>
        2.1138715744018555e-01 -8.7801903486251831e-02</leafValues></_>
    <_>
      <internalNodes>
        0 -1 4708 -8.3748005330562592e-02</internalNodes>
      <leafValues>
        -3.4771528840065002e-01 5.9575978666543961e-02</leafValues></_>
    <_>
      <internalNodes>
        0 -1 39179 -1.6890469938516617e-02</internalNodes>
      <leafValues>
        3.6751958727836609e-01 -4.3296732008457184e-02</leafValues></_>
    <_>
      <internalNodes>
        0 -1 61440 2.8744971496053040e-04</internalNodes>
      <leafValues>
        5.9137322008609772e-02 -2.6220214366912842e-01</leafValues></_>
    <_>
      <internalNodes>
        0 -1 67925 7.0271277800202370e-03</internalNodes>
      <leafValues>
        -5.7112049311399460e-02 2.9386451840400696e-01</leafValues></_>
    <_>
      <internalNodes>
        0 -1 33584 -2.5291727855801582e-02</internalNodes>
      <leafValues>
        -2.2969308495521545e-01 6.7773863673210144e-02</leafValues></_>
    <_>
      <internalNodes>
        0 -1 78313 -9.4094628002494574e-04</internalNodes>
      <leafValues>
        -2.6212024688720703e-01 5.4393719881772995e-02</leafValues></_>
    <_>
      <internalNodes>
        0 -1 34727 4.7491818666458130e-02</internalNodes>
      <leafValues>
        3.3630602061748505e-02 -4.5428213477134705e-01</leafValues></_>
    <_>
      <internalNodes>
        0 -1 34185 5.4425634443759918e-03</internalNodes>
      <leafValues>
        7.3271483182907104e-02 -1.8756556510925293e-01</leafValues></_>
    <_>
      <internalNodes>
        0 -1 67762 4.1389919817447662e-02</internalNodes>
      <leafValues>
        2.7398101985454559e-02 -4.9981725215911865e-01</leafValues></_>
    <_>
      <internalNodes>
        0 -1 1 7.1158038917928934e-04</internalNodes>
      <leafValues>
        5.7548094540834427e-02 -2.2594313323497772e-01</leafValues></_>
    <_>
      <internalNodes>
        0 -1 13 -5.4837036877870560e-03</internalNodes>
      <leafValues>
        -2.3455737531185150e-01 6.0310360044240952e-02</leafValues></_>
    <_>
      <internalNodes>
        0 -1 59059 6.1597928404808044e-02</internalNodes>
      <leafValues>
        -2.9459759593009949e-02 4.7233924269676208e-01</leafValues></_>
    <_>
      <internalNodes>
        0 -1 60583 -2.0816631615161896e-02</internalNodes>
      <leafValues>
        3.4279403090476990e-01 -3.9325132966041565e-02</leafValues></_>
    <_>
      <internalNodes>
        0 -1 15850 -1.1704228818416595e-01</internalNodes>
      <leafValues>
        -4.1432595252990723e-01 3.7731718271970749e-02</leafValues></_>
    <_>
      <internalNodes>
        0 -1 15613 -1.7666447907686234e-02</internalNodes>
      <leafValues>
        -3.0866855382919312e-01 4.3744064867496490e-02</leafValues></_>
    <_>
      <internalNodes>
        0 -1 19781 1.8509710207581520e-02</internalNodes>
      <leafValues>
        -5.3122259676456451e-02 3.2851794362068176e-01</leafValues></_>
    <_>
      <internalNodes>
        0 -1 33229 -1.6645628958940506e-02</internalNodes>
      <leafValues>
        4.5665889978408813e-01 -3.2445106655359268e-02</leafValues></_>
    <_>
      <internalNodes>
        0 -1 44110 -3.2024823129177094e-02</internalNodes>
      <leafValues>
        4.0401077270507813e-01 -2.7965852990746498e-02</leafValues></_>
    <_>
      <internalNodes>
        0 -1 50953 -1.1661417782306671e-02</internalNodes>
      <leafValues>
        2.1034902334213257e-01 -6.1708252876996994e-02</leafValues></_>
    <_>
      <internalNodes>
        0 -1 43616 -3.9316238835453987e-03</internalNodes>
      <leafValues>
        -4.6460077166557312e-01 3.2557219266891479e-02</leafValues></_>
    <_>
      <internalNodes>
        0 -1 46557 -1.5125337988138199e-02</internalNodes>
      <leafValues>
        2.8392064571380615e-01 -4.9028825014829636e-02</leafValues></_>
    <_>
      <internalNodes>
        0 -1 17637 -1.5201035141944885e-01</internalNodes>
      <leafValues>
        -5.0769108533859253e-01 2.5719368830323219e-02</leafValues></_>
    <_>
      <internalNodes>
        0 -1 67567 -3.6803998053073883e-02</internalNodes>
      <leafValues>
        4.9700978398323059e-01 -2.9476435855031013e-02</leafValues></_>
    <_>
      <internalNodes>
        0 -1 56335 7.0460133254528046e-02</internalNodes>
      <leafValues>
        -1.6228902339935303e-01 8.6457364261150360e-02</leafValues></_>
    <_>
      <internalNodes>
        0 -1 6063 -9.0838118921965361e-04</internalNodes>
      <leafValues>
        -2.2167594730854034e-01 5.1147174090147018e-02</leafValues></_>
    <_>
      <internalNodes>
        0 -1 34727 -5.2558794617652893e-02</internalNodes>
      <leafValues>
        -3.2683342695236206e-01 3.5171832889318466e-02</leafValues></_>
    <_>
      <internalNodes>
        0 -1 66387 7.2093382477760315e-02</internalNodes>
      <leafValues>
        -1.7708260565996170e-02 6.8537473678588867e-01</leafValues></_>
    <_>
      <internalNodes>
        0 -1 59438 2.6844888925552368e-02</internalNodes>
      <leafValues>
        -2.1422656252980232e-02 4.5547878742218018e-01</leafValues></_>
    <_>
      <internalNodes>
        0 -1 748 6.0621113516390324e-03</internalNodes>
      <leafValues>
        3.7509135901927948e-02 -3.2013946771621704e-01</leafValues></_>
    <_>
      <internalNodes>
        0 -1 29475 7.3012761771678925e-02</internalNodes>
      <leafValues>
        -1.3158559799194336e-01 9.0365253388881683e-02</leafValues></_>
    <_>
      <internalNodes>
        0 -1 13270 -2.0559826493263245e-01</internalNodes>
      <leafValues>
        -3.9127340912818909e-01 3.6308918148279190e-02</leafValues></_>
    <_>
      <internalNodes>
        0 -1 23137 2.5467779487371445e-02</internalNodes>
      <leafValues>
        8.9541010558605194e-02 -1.4381834864616394e-01</leafValues></_>
    <_>
      <internalNodes>
        0 -1 10944 -3.3317290246486664e-02</internalNodes>
      <leafValues>
        4.0804862976074219e-01 -3.9723414927721024e-02</leafValues></_>
    <_>
      <internalNodes>
        0 -1 35232 2.4454905092716217e-01</internalNodes>
      <leafValues>
        2.1026426926255226e-02 -6.4944040775299072e-01</leafValues></_>
    <_>
      <internalNodes>
        0 -1 12804 5.1895219087600708e-01</internalNodes>
      <leafValues>
        1.9593155011534691e-02 -5.0010198354721069e-01</leafValues></_>
    <_>
      <internalNodes>
        0 -1 32758 6.9946296513080597e-02</internalNodes>
      <leafValues>
        -1.4538018405437469e-01 9.6107028424739838e-02</leafValues></_>
    <_>
      <internalNodes>
        0 -1 49218 -8.2839857786893845e-03</internalNodes>
      <leafValues>
        2.6396754384040833e-01 -4.8617217689752579e-02</leafValues></_>
    <_>
      <internalNodes>
        0 -1 26244 1.2317329645156860e-02</internalNodes>
      <leafValues>
        -1.8318774178624153e-02 5.8915001153945923e-01</leafValues></_>
    <_>
      <internalNodes>
        0 -1 45141 -1.0913288220763206e-02</internalNodes>
      <leafValues>
        -3.2274645566940308e-01 3.9806596934795380e-02</leafValues></_>
    <_>
      <internalNodes>
        0 -1 57643 -7.9398285597562790e-03</internalNodes>
      <leafValues>
        4.1882403194904327e-02 -2.7662411332130432e-01</leafValues></_>
    <_>
      <internalNodes>
        0 -1 73512 -3.9329957216978073e-03</internalNodes>
      <leafValues>
        -1.6362880170345306e-01 6.9763481616973877e-02</leafValues></_>
    <_>
      <internalNodes>
        0 -1 76079 8.6431562900543213e-02</internalNodes>
      <leafValues>
        -1.2650652788579464e-02 8.5027867555618286e-01</leafValues></_>
    <_>
      <internalNodes>
        0 -1 66451 -1.2282852828502655e-01</internalNodes>
      <leafValues>
        -5.3286546468734741e-01 2.4774866178631783e-02</leafValues></_>
    <_>
      <internalNodes>
        0 -1 14753 -9.1310928110033274e-04</internalNodes>
      <leafValues>
        -2.0787248015403748e-01 5.4838705807924271e-02</leafValues></_>
    <_>
      <internalNodes>
        0 -1 78287 8.0751031637191772e-03</internalNodes>
      <leafValues>
        -1.5809031203389168e-02 7.4286574125289917e-01</leafValues></_>
    <_>
      <internalNodes>
        0 -1 78245 -4.3305139988660812e-03</internalNodes>
      <leafValues>
        -2.6963824033737183e-01 4.8777237534523010e-02</leafValues></_>
    <_>
      <internalNodes>
        0 -1 54082 -9.0102916583418846e-03</internalNodes>
      <leafValues>
        1.5525516867637634e-01 -7.0741869509220123e-02</leafValues></_>
    <_>
      <internalNodes>
        0 -1 49002 -1.2202671496197581e-03</internalNodes>
      <leafValues>
        1.5478304028511047e-01 -8.7994858622550964e-02</leafValues></_>
    <_>
      <internalNodes>
        0 -1 73520 9.4819918740540743e-04</internalNodes>
      <leafValues>
        4.2483922094106674e-02 -2.4745246767997742e-01</leafValues></_>
    <_>
      <internalNodes>
        0 -1 18438 7.5587807223200798e-03</internalNodes>
      <leafValues>
        8.4441103041172028e-02 -1.2937472760677338e-01</leafValues></_>
    <_>
      <internalNodes>
        0 -1 11554 3.2693493366241455e-01</internalNodes>
      <leafValues>
        3.1689450144767761e-02 -3.7039607763290405e-01</leafValues></_>
    <_>
      <internalNodes>
        0 -1 34166 5.7017114013433456e-03</internalNodes>
      <leafValues>
        3.4794136881828308e-02 -3.1172785162925720e-01</leafValues></_>
    <_>
      <internalNodes>
        0 -1 8800 1.5446121990680695e-01</internalNodes>
      <leafValues>
        4.6023689210414886e-02 -2.2759237885475159e-01</leafValues></_>
    <_>
      <internalNodes>
        0 -1 7884 -1.4170421287417412e-02</internalNodes>
      <leafValues>
        -3.6830818653106689e-01 2.9577558860182762e-02</leafValues></_>
    <_>
      <internalNodes>
        0 -1 78395 6.1972783878445625e-03</internalNodes>
      <leafValues>
        3.5483043640851974e-02 -2.9466274380683899e-01</leafValues></_>
    <_>
      <internalNodes>
        0 -1 61170 1.1912010610103607e-02</internalNodes>
      <leafValues>
        -3.6983504891395569e-02 3.1809577345848083e-01</leafValues></_>
    <_>
      <internalNodes>
        0 -1 20658 -3.9993707090616226e-02</internalNodes>
      <leafValues>
        4.9349623918533325e-01 -2.1889684721827507e-02</leafValues></_>
    <_>
      <internalNodes>
        0 -1 53017 3.5192020004615188e-04</internalNodes>
      <leafValues>
        -1.5009219944477081e-01 7.6976381242275238e-02</leafValues></_>
    <_>
      <internalNodes>
        0 -1 18888 3.6111122462898493e-03</internalNodes>
      <leafValues>
        -2.0645360648632050e-01 5.9062171727418900e-02</leafValues></_>
    <_>
      <internalNodes>
        0 -1 64226 -1.0628581047058105e-01</internalNodes>
      <leafValues>
        -2.6235976815223694e-01 4.3006226420402527e-02</leafValues></_>
    <_>
      <internalNodes>
        0 -1 29948 -1.0135754942893982e-01</internalNodes>
      <leafValues>
        -4.8113706707954407e-01 2.2476430982351303e-02</leafValues></_>
    <_>
      <internalNodes>
        0 -1 19176 -2.4305651895701885e-03</internalNodes>
      <leafValues>
        1.8431270122528076e-01 -6.0238033533096313e-02</leafValues></_>
    <_>
      <internalNodes>
        0 -1 31228 2.0400036126375198e-02</internalNodes>
      <leafValues>
        -6.9534927606582642e-02 1.7562562227249146e-01</leafValues></_>
    <_>
      <internalNodes>
        0 -1 43231 -2.2906090598553419e-03</internalNodes>
      <leafValues>
        1.4957469701766968e-01 -7.1647852659225464e-02</leafValues></_>
    <_>
      <internalNodes>
        0 -1 57201 -3.3605622593313456e-03</internalNodes>
      <leafValues>
        -3.5706526041030884e-01 3.2289046794176102e-02</leafValues></_>
    <_>
      <internalNodes>
        0 -1 47646 1.9320048391819000e-02</internalNodes>
      <leafValues>
        -3.3824358135461807e-02 3.6160671710968018e-01</leafValues></_>
    <_>
      <internalNodes>
        0 -1 43416 6.1388267204165459e-03</internalNodes>
      <leafValues>
        -4.6599872410297394e-02 2.4929106235504150e-01</leafValues></_>
    <_>
      <internalNodes>
        0 -1 73703 4.5209522359073162e-03</internalNodes>
      <leafValues>
        -9.3230143189430237e-02 1.4188413321971893e-01</leafValues></_>
    <_>
      <internalNodes>
        0 -1 77307 -1.1367349652573466e-03</internalNodes>
      <leafValues>
        -1.3817100226879120e-01 7.9932563006877899e-02</leafValues></_>
    <_>
      <internalNodes>
        0 -1 70099 6.1993267387151718e-02</internalNodes>
      <leafValues>
        -1.6605732962489128e-02 6.4072012901306152e-01</leafValues></_>
    <_>
      <internalNodes>
        0 -1 37774 -4.6349018812179565e-02</internalNodes>
      <leafValues>
        -2.0318531990051270e-01 6.1604224145412445e-02</leafValues></_>
    <_>
      <internalNodes>
        0 -1 56649 -9.1090681962668896e-04</internalNodes>
      <leafValues>
        -2.3157082498073578e-01 5.1571562886238098e-02</leafValues></_></weakClassifiers></stage3>
</opencv_storage>
