<?xml version="1.0"?>
<opencv_storage>
<stage11>
  <maxWeakCount>12</maxWeakCount>
  <stageThreshold>-9.8247259855270386e-01</stageThreshold>
  <weakClassifiers>
    <_>
      <internalNodes>
        0 -1 10127 1.3947050273418427e-01</internalNodes>
      <leafValues>
        5.5958425998687744e-01 -3.6500579118728638e-01</leafValues></_>
    <_>
      <internalNodes>
        0 -1 68571 -1.3789117801934481e-03</internalNodes>
      <leafValues>
        -3.6278295516967773e-01 6.2669384479522705e-01</leafValues></_>
    <_>
      <internalNodes>
        0 -1 75534 1.7914010211825371e-02</internalNodes>
      <leafValues>
        -1.7309024930000305e-01 1.</leafValues></_>
    <_>
      <internalNodes>
        0 -1 72080 -4.6227350831031799e-03</internalNodes>
      <leafValues>
        -2.3064890503883362e-01 8.1448835134506226e-01</leafValues></_>
    <_>
      <internalNodes>
        0 -1 55222 -1.6055924352258444e-03</internalNodes>
      <leafValues>
        -4.7420889139175415e-01 3.6428061127662659e-01</leafValues></_>
    <_>
      <internalNodes>
        0 -1 75725 -4.9247039714828134e-04</internalNodes>
      <leafValues>
        -2.4539695680141449e-01 7.9651618003845215e-01</leafValues></_>
    <_>
      <internalNodes>
        0 -1 57310 -7.7129192650318146e-03</internalNodes>
      <leafValues>
        4.5658400654792786e-01 -4.5821070671081543e-01</leafValues></_>
    <_>
      <internalNodes>
        0 -1 76672 -2.3945062421262264e-03</internalNodes>
      <leafValues>
        7.2128206491470337e-01 -2.3847298324108124e-01</leafValues></_>
    <_>
      <internalNodes>
        0 -1 56829 -1.7526719719171524e-02</internalNodes>
      <leafValues>
        1. -1.4024770259857178e-01</leafValues></_>
    <_>
      <internalNodes>
        0 -1 66007 2.4711436033248901e-01</internalNodes>
      <leafValues>
        2.2680197656154633e-01 -8.7877261638641357e-01</leafValues></_>
    <_>
      <internalNodes>
        0 -1 20627 -2.0963624119758606e-03</internalNodes>
      <leafValues>
        1. -1.8892431259155273e-01</leafValues></_>
    <_>
      <internalNodes>
        0 -1 49819 -8.7834091391414404e-04</internalNodes>
      <leafValues>
        7.2042453289031982e-01 -1.6891902685165405e-01</leafValues></_></weakClassifiers></stage11>
</opencv_storage>
